{"learner":{"attributes":{"scikit_learn":"{\"_estimator_type\": \"regressor\"}"},"feature_names":["gameScore","onIce_xGoalsPercentage","onIce_corsiPercentage","onIce_fenwickPercentage","I_F_xOnGoal","I_F_xGoals","I_F_xRebounds","I_F_xFreeze","I_F_xPlayStopped","I_F_xPlayContinuedInZone","I_F_xPlayContinuedOutsideZone","I_F_flurryAdjustedxGoals","I_F_scoreVenueAdjustedxGoals","I_F_flurryScoreVenueAdjustedxGoals","I_F_primaryAssists","I_F_shotsOnGoal","I_F_missedShots","I_F_shotAttempts","I_F_points","I_F_goals","I_F_rebounds","I_F_reboundGoals","I_F_playContinuedInZone","I_F_playContinuedOutsideZone","I_F_savedShotsOnGoal","I_F_savedUnblockedShotAttempts","I_F_mediumDangerShots","I_F_highDangerShots","I_F_lowDangerxGoals","I_F_mediumDangerxGoals","I_F_highDangerxGoals","I_F_lowDangerGoals","I_F_mediumDangerGoals","I_F_highDangerGoals","I_F_scoreAdjustedShotsAttempts","I_F_unblockedShotAttempts","I_F_scoreAdjustedUnblockedShotAttempts","I_F_xGoalsFromxReboundsOfShots","I_F_xGoalsFromActualReboundsOfShots","I_F_reboundxGoals","I_F_xGoals_with_earned_rebounds","I_F_xGoals_with_earned_rebounds_scoreAdjusted","I_F_xGoals_with_earned_rebounds_scoreFlurryAdjusted","I_F_oZoneShiftStarts","OnIce_F_scoreVenueAdjustedxGoals","OnIce_F_goals","OnIce_F_mediumDangerShots","OnIce_F_highDangerxGoals","OnIce_F_lowDangerGoals","OnIce_F_highDangerGoals","OnIce_F_xGoalsFromActualReboundsOfShots","mean_5years_regular_all_gameScore","mean_5years_regular_all_onIce_xGoalsPercentage","mean_5years_regular_all_offIce_xGoalsPercentage","mean_5years_regular_all_onIce_corsiPercentage","mean_5years_regular_all_onIce_fenwickPercentage","mean_5years_regular_all_I_F_xOnGoal","mean_5years_regular_all_I_F_xGoals","mean_5years_regular_all_I_F_xRebounds","mean_5years_regular_all_I_F_xPlayStopped","mean_5years_regular_all_I_F_xPlayContinuedInZone","mean_5years_regular_all_I_F_flurryAdjustedxGoals","mean_5years_regular_all_I_F_scoreVenueAdjustedxGoals","mean_5years_regular_all_I_F_flurryScoreVenueAdjustedxGoals","mean_5years_regular_all_I_F_primaryAssists","mean_5years_regular_all_I_F_shotsOnGoal","mean_5years_regular_all_I_F_points","mean_5years_regular_all_I_F_goals","mean_5years_regular_all_I_F_reboundGoals","mean_5years_regular_all_I_F_playStopped","mean_5years_regular_all_I_F_playContinuedOutsideZone","mean_5years_regular_all_I_F_savedShotsOnGoal","mean_5years_regular_all_I_F_savedUnblockedShotAttempts","mean_5years_regular_all_I_F_mediumDangerShots","mean_5years_regular_all_I_F_highDangerShots","mean_5years_regular_all_I_F_lowDangerxGoals","mean_5years_regular_all_I_F_mediumDangerxGoals","mean_5years_regular_all_I_F_highDangerxGoals","mean_5years_regular_all_I_F_mediumDangerGoals","mean_5years_regular_all_I_F_highDangerGoals","mean_5years_regular_all_I_F_unblockedShotAttempts","mean_5years_regular_all_I_F_scoreAdjustedUnblockedShotAttempts","mean_5years_regular_all_I_F_xGoalsFromxReboundsOfShots","mean_5years_regular_all_I_F_xGoals_with_earned_rebounds","mean_5years_regular_all_I_F_xGoals_with_earned_rebounds_scoreAdjusted","mean_5years_regular_all_I_F_xGoals_with_earned_rebounds_scoreFlurryAdjusted","mean_5years_playoffs_all_onIce_corsiPercentage","mean_5years_playoffs_all_onIce_fenwickPercentage","mean_5years_playoffs_all_offIce_fenwickPercentage","mean_5years_playoffs_all_I_F_xGoals","mean_5years_playoffs_all_I_F_xPlayContinuedInZone","mean_5years_playoffs_all_I_F_flurryAdjustedxGoals","mean_5years_playoffs_all_I_F_scoreVenueAdjustedxGoals","mean_5years_playoffs_all_I_F_flurryScoreVenueAdjustedxGoals","mean_5years_playoffs_all_I_F_points","mean_5years_playoffs_all_I_F_highDangerShots","mean_5years_playoffs_all_I_F_lowDangerxGoals","mean_5years_playoffs_all_I_F_highDangerxGoals","mean_5years_playoffs_all_I_F_unblockedShotAttempts","mean_5years_playoffs_all_I_F_xGoals_with_earned_rebounds_scoreFlurryAdjusted"],"feature_types":["float","float","float","float","float","float","float","float","float","float","float","float","float","float","float","float","float","float","float","float","float","float","float","float","float","float","float","float","float","float","float","float","float","float","float","float","float","float","float","float","float","float","float","float","float","float","float","float","float","float","float","float","float","float","float","float","float","float","float","float","float","float","float","float","float","float","float","float","float","float","float","float","float","float","float","float","float","float","float","float","float","float","float","float","float","float","float","float","float","float","float","float","float","float","float","float","float","float","float","float"],"gradient_booster":{"model":{"gbtree_model_param":{"num_parallel_tree":"1","num_trees":"500"},"iteration_indptr":[0,1,2,3,4,5,6,7,8,9,10,11,12,13,14,15,16,17,18,19,20,21,22,23,24,25,26,27,28,29,30,31,32,33,34,35,36,37,38,39,40,41,42,43,44,45,46,47,48,49,50,51,52,53,54,55,56,57,58,59,60,61,62,63,64,65,66,67,68,69,70,71,72,73,74,75,76,77,78,79,80,81,82,83,84,85,86,87,88,89,90,91,92,93,94,95,96,97,98,99,100,101,102,103,104,105,106,107,108,109,110,111,112,113,114,115,116,117,118,119,120,121,122,123,124,125,126,127,128,129,130,131,132,133,134,135,136,137,138,139,140,141,142,143,144,145,146,147,148,149,150,151,152,153,154,155,156,157,158,159,160,161,162,163,164,165,166,167,168,169,170,171,172,173,174,175,176,177,178,179,180,181,182,183,184,185,186,187,188,189,190,191,192,193,194,195,196,197,198,199,200,201,202,203,204,205,206,207,208,209,210,211,212,213,214,215,216,217,218,219,220,221,222,223,224,225,226,227,228,229,230,231,232,233,234,235,236,237,238,239,240,241,242,243,244,245,246,247,248,249,250,251,252,253,254,255,256,257,258,259,260,261,262,263,264,265,266,267,268,269,270,271,272,273,274,275,276,277,278,279,280,281,282,283,284,285,286,287,288,289,290,291,292,293,294,295,296,297,298,299,300,301,302,303,304,305,306,307,308,309,310,311,312,313,314,315,316,317,318,319,320,321,322,323,324,325,326,327,328,329,330,331,332,333,334,335,336,337,338,339,340,341,342,343,344,345,346,347,348,349,350,351,352,353,354,355,356,357,358,359,360,361,362,363,364,365,366,367,368,369,370,371,372,373,374,375,376,377,378,379,380,381,382,383,384,385,386,387,388,389,390,391,392,393,394,395,396,397,398,399,400,401,402,403,404,405,406,407,408,409,410,411,412,413,414,415,416,417,418,419,420,421,422,423,424,425,426,427,428,429,430,431,432,433,434,435,436,437,438,439,440,441,442,443,444,445,446,447,448,449,450,451,452,453,454,455,456,457,458,459,460,461,462,463,464,465,466,467,468,469,470,471,472,473,474,475,476,477,478,479,480,481,482,483,484,485,486,487,488,489,490,491,492,493,494,495,496,497,498,499,500],"tree_info":[0,0,0,0,0,0,0,0,0,0,0,0,0,0,0,0,0,0,0,0,0,0,0,0,0,0,0,0,0,0,0,0,0,0,0,0,0,0,0,0,0,0,0,0,0,0,0,0,0,0,0,0,0,0,0,0,0,0,0,0,0,0,0,0,0,0,0,0,0,0,0,0,0,0,0,0,0,0,0,0,0,0,0,0,0,0,0,0,0,0,0,0,0,0,0,0,0,0,0,0,0,0,0,0,0,0,0,0,0,0,0,0,0,0,0,0,0,0,0,0,0,0,0,0,0,0,0,0,0,0,0,0,0,0,0,0,0,0,0,0,0,0,0,0,0,0,0,0,0,0,0,0,0,0,0,0,0,0,0,0,0,0,0,0,0,0,0,0,0,0,0,0,0,0,0,0,0,0,0,0,0,0,0,0,0,0,0,0,0,0,0,0,0,0,0,0,0,0,0,0,0,0,0,0,0,0,0,0,0,0,0,0,0,0,0,0,0,0,0,0,0,0,0,0,0,0,0,0,0,0,0,0,0,0,0,0,0,0,0,0,0,0,0,0,0,0,0,0,0,0,0,0,0,0,0,0,0,0,0,0,0,0,0,0,0,0,0,0,0,0,0,0,0,0,0,0,0,0,0,0,0,0,0,0,0,0,0,0,0,0,0,0,0,0,0,0,0,0,0,0,0,0,0,0,0,0,0,0,0,0,0,0,0,0,0,0,0,0,0,0,0,0,0,0,0,0,0,0,0,0,0,0,0,0,0,0,0,0,0,0,0,0,0,0,0,0,0,0,0,0,0,0,0,0,0,0,0,0,0,0,0,0,0,0,0,0,0,0,0,0,0,0,0,0,0,0,0,0,0,0,0,0,0,0,0,0,0,0,0,0,0,0,0,0,0,0,0,0,0,0,0,0,0,0,0,0,0,0,0,0,0,0,0,0,0,0,0,0,0,0,0,0,0,0,0,0,0,0,0,0,0,0,0,0,0,0,0,0,0,0,0,0,0,0,0,0,0,0,0,0,0,0,0,0,0,0,0,0,0,0,0,0,0,0,0,0,0,0,0,0,0,0,0,0,0,0,0,0,0,0,0,0,0,0,0,0,0,0,0,0,0,0,0,0,0,0,0,0,0,0],"trees":[{"base_weights":[-7.7078175E-6,-2.3254076E1,3.8076653E1,-3.219212E1,2.381036E0,2.8798777E1,7.818881E1,-4.0133335E1,-2.1351288E1,3.714155E0,-8.47479E-1,7.6220517E0,4.1346527E1,6.775722E1,1.27958244E2,-1.7276818E-1,-4.428764E-1,-2.5704744E-1,4.7622774E-2,-2.6306165E-2,2.2245061E-1,-8.167972E-3,4.1574377E-1,3.701697E-1,6.866767E-1,2.4993981E-1,7.6401114E-1,1.4727222E0,4.5470935E-1],"categories":[],"categories_nodes":[],"categories_segments":[],"categories_sizes":[],"default_left":[0,0,0,0,0,0,0,0,0,0,0,0,0,0,0,0,0,0,0,0,0,0,0,0,0,0,0,0,0],"id":0,"left_children":[1,3,5,7,9,11,13,15,17,19,-1,21,23,25,27,-1,-1,-1,-1,-1,-1,-1,-1,-1,-1,-1,-1,-1,-1],"loss_changes":[1.8098338E6,2.9083962E5,2.86169E5,8.015319E4,3.8529184E4,1.6735428E5,6.661025E4,5.069925E4,4.5596125E4,3.8270188E4,0E0,6.7652336E4,4.4300312E4,4.3186625E4,3.1539188E4,0E0,0E0,0E0,0E0,0E0,0E0,0E0,0E0,0E0,0E0,0E0,0E0,0E0,0E0],"parents":[2147483647,0,0,1,1,2,2,3,3,4,4,5,5,6,6,7,7,8,8,9,9,11,11,12,12,13,13,14,14],"right_children":[2,4,6,8,10,12,14,16,18,20,-1,22,24,26,28,-1,-1,-1,-1,-1,-1,-1,-1,-1,-1,-1,-1,-1,-1],"split_conditions":[4.212E1,5.2666664E-1,6.6734E1,7E0,3.536E0,1.5E1,9.923E1,4.9E1,5.4E-1,6E0,-8.47479E-1,5.9E-1,7.553E1,5.466667E-1,2.1E1,-1.7276818E-1,-4.428764E-1,-2.5704744E-1,4.7622774E-2,-2.6306165E-2,2.2245061E-1,-8.167972E-3,4.1574377E-1,3.701697E-1,6.866767E-1,2.4993981E-1,7.6401114E-1,1.4727222E0,4.5470935E-1],"split_indices":[0,54,51,19,82,27,0,46,1,94,0,2,0,87,31,0,0,0,0,0,0,0,0,0,0,0,0,0,0],"split_type":[0,0,0,0,0,0,0,0,0,0,0,0,0,0,0,0,0,0,0,0,0,0,0,0,0,0,0,0,0],"sum_hessian":[2.042E3,1.268E3,7.74E2,9.4E2,3.28E2,6.3E2,1.44E2,5.41E2,3.99E2,3.24E2,4E0,2.35E2,3.95E2,1.21E2,2.3E1,8.4E1,4.57E2,3.42E2,5.7E1,2.42E2,8.2E1,1.89E2,4.6E1,3.43E2,5.2E1,2.1E1,1E2,1.8E1,5E0],"tree_param":{"num_deleted":"0","num_feature":"100","num_nodes":"29","size_leaf_vector":"1"}},{"base_weights":[1.4176408E-3,-2.3022707E1,3.7701565E1,-3.1871084E1,2.35524E0,2.8513103E1,7.742719E1,-4.0734108E1,-2.231468E1,3.677611E0,-8.406992E-1,7.5475616E0,4.093572E1,6.708793E1,1.2675897E2,-4.6889886E-1,-2.4665399E-1,-3.94963E-1,-1.5758736E-1,-2.6044186E-2,2.202527E-1,-8.086615E-3,4.1167453E-1,3.6647868E-1,6.7993915E-1,2.4755403E-1,7.5644636E-1,1.4587702E0,4.509201E-1],"categories":[],"categories_nodes":[],"categories_segments":[],"categories_sizes":[],"default_left":[0,0,0,0,0,0,0,0,0,0,0,0,0,0,0,0,0,0,0,0,0,0,0,0,0,0,0,0,0],"id":1,"left_children":[1,3,5,7,9,11,13,15,17,19,-1,21,23,25,27,-1,-1,-1,-1,-1,-1,-1,-1,-1,-1,-1,-1,-1,-1],"loss_changes":[1.7742182E6,2.8503362E5,2.8068075E5,7.8792375E4,3.790931E4,1.6403294E5,6.5453812E4,4.7015312E4,5.0629562E4,3.7517043E4,0E0,6.6334016E4,4.3452688E4,4.2319062E4,3.0893625E4,0E0,0E0,0E0,0E0,0E0,0E0,0E0,0E0,0E0,0E0,0E0,0E0,0E0,0E0],"parents":[2147483647,0,0,1,1,2,2,3,3,4,4,5,5,6,6,7,7,8,8,9,9,11,11,12,12,13,13,14,14],"right_children":[2,4,6,8,10,12,14,16,18,20,-1,22,24,26,28,-1,-1,-1,-1,-1,-1,-1,-1,-1,-1,-1,-1,-1,-1],"split_conditions":[4.212E1,5.2666664E-1,6.6734E1,1.6E0,3.536E0,1.5E1,9.923E1,5E-1,4.25E-1,6E0,-8.406992E-1,5.9E-1,7.553E1,5.466667E-1,2.1E1,-4.6889886E-1,-2.4665399E-1,-3.94963E-1,-1.5758736E-1,-2.6044186E-2,2.202527E-1,-8.086615E-3,4.1167453E-1,3.6647868E-1,6.7993915E-1,2.4755403E-1,7.5644636E-1,1.4587702E0,4.509201E-1],"split_indices":[0,54,51,78,82,27,0,1,86,94,0,2,0,87,31,0,0,0,0,0,0,0,0,0,0,0,0,0,0],"split_type":[0,0,0,0,0,0,0,0,0,0,0,0,0,0,0,0,0,0,0,0,0,0,0,0,0,0,0,0,0],"sum_hessian":[2.042E3,1.268E3,7.74E2,9.4E2,3.28E2,6.3E2,1.44E2,4.86E2,4.54E2,3.24E2,4E0,2.35E2,3.95E2,1.21E2,2.3E1,3.5E2,1.36E2,1.24E2,3.3E2,2.42E2,8.2E1,1.89E2,4.6E1,3.43E2,5.2E1,2.1E1,1E2,1.8E1,5E0],"tree_param":{"num_deleted":"0","num_feature":"100","num_nodes":"29","size_leaf_vector":"1"}},{"base_weights":[2.5989683E-3,-2.2793995E1,3.733018E1,-3.155373E1,2.32973E0,2.8230276E1,7.6673004E1,-4.048246E1,-2.220883E1,3.6414402E0,-8.339736E-1,7.4737706E0,4.0529026E1,6.006956E1,1.0609759E2,-1.6754423E-1,-4.5257437E-1,-2.6989108E-1,-3.7627737E-3,-2.578464E-2,2.1807647E-1,-8.006473E-3,4.076453E-1,3.38709E-1,5.753223E-1,4.3503517E-1,9.1324466E-1,5.0974464E-1,1.1829897E0],"categories":[],"categories_nodes":[],"categories_segments":[],"categories_sizes":[],"default_left":[0,0,0,0,0,0,0,0,0,0,0,0,0,0,0,0,0,0,0,0,0,0,0,0,0,0,0,0,0],"id":2,"left_children":[1,3,5,7,9,11,13,15,17,19,-1,21,23,25,27,-1,-1,-1,-1,-1,-1,-1,-1,-1,-1,-1,-1,-1,-1],"loss_changes":[1.7393248E6,2.7935144E5,2.7529788E5,7.761619E4,3.7299434E4,1.6077816E5,6.4466438E4,5.3626125E4,4.8206797E4,3.6778652E4,0E0,6.5041586E4,4.2882312E4,4.521525E4,2.8271312E4,0E0,0E0,0E0,0E0,0E0,0E0,0E0,0E0,0E0,0E0,0E0,0E0,0E0,0E0],"parents":[2147483647,0,0,1,1,2,2,3,3,4,4,5,5,6,6,7,7,8,8,9,9,11,11,12,12,13,13,14,14],"right_children":[2,4,6,8,10,12,14,16,18,20,-1,22,24,26,28,-1,-1,-1,-1,-1,-1,-1,-1,-1,-1,-1,-1,-1,-1],"split_conditions":[4.212E1,5.2666664E-1,6.6734E1,6.37E0,3.536E0,1.5E1,8.761E1,4.02E0,5.3E-1,6E0,-8.339736E-1,5.9E-1,6.574E1,6.0333335E-1,5.9E-1,-1.6754423E-1,-4.5257437E-1,-2.6989108E-1,-3.7627737E-3,-2.578464E-2,2.1807647E-1,-8.006473E-3,4.076453E-1,3.38709E-1,5.753223E-1,4.3503517E-1,9.1324466E-1,5.0974464E-1,1.1829897E0],"split_indices":[0,54,51,40,82,27,0,47,1,94,0,2,0,86,1,0,0,0,0,0,0,0,0,0,0,0,0,0,0],"split_type":[0,0,0,0,0,0,0,0,0,0,0,0,0,0,0,0,0,0,0,0,0,0,0,0,0,0,0,0,0],"sum_hessian":[2.042E3,1.268E3,7.74E2,9.4E2,3.28E2,6.3E2,1.44E2,4.79E2,4.61E2,3.24E2,4E0,2.35E2,3.95E2,9.4E1,5E1,8.1E1,3.98E2,3.78E2,8.3E1,2.42E2,8.2E1,1.89E2,4.6E1,2.86E2,1.09E2,6.3E1,3.1E1,1E1,4E1],"tree_param":{"num_deleted":"0","num_feature":"100","num_nodes":"29","size_leaf_vector":"1"}},{"base_weights":[3.9532436E-3,-2.2567266E1,3.69625E1,-3.1239138E1,2.3044615E0,2.7950062E1,7.592723E1,-3.898838E1,-2.0660818E1,3.605596E0,-8.2730174E-1,7.400716E0,4.012606E1,6.575088E1,1.24493385E2,-1.652238E-1,-4.3072703E-1,-2.3474313E-1,1.907652E-1,-2.5528133E-2,2.1592197E-1,-7.926938E-3,4.0365547E-1,3.6221874E-1,6.90444E-1,2.4093628E-1,7.4173737E-1,1.4340975E0,4.384262E-1],"categories":[],"categories_nodes":[],"categories_segments":[],"categories_sizes":[],"default_left":[0,0,0,0,0,0,0,0,0,0,0,0,0,0,0,0,0,0,0,0,0,0,0,0,0,0,0,0,0],"id":3,"left_children":[1,3,5,7,9,11,13,15,17,19,-1,21,23,25,27,-1,-1,-1,-1,-1,-1,-1,-1,-1,-1,-1,-1,-1,-1],"loss_changes":[1.7051038E6,2.7377556E5,2.7003238E5,7.633194E4,3.6699348E4,1.5758484E5,6.3477188E4,4.9021438E4,4.5168125E4,3.6055E4,0E0,6.3774273E4,4.22085E4,4.1019438E4,3.0327438E4,0E0,0E0,0E0,0E0,0E0,0E0,0E0,0E0,0E0,0E0,0E0,0E0,0E0,0E0],"parents":[2147483647,0,0,1,1,2,2,3,3,4,4,5,5,6,6,7,7,8,8,9,9,11,11,12,12,13,13,14,14],"right_children":[2,4,6,8,10,12,14,16,18,20,-1,22,24,26,28,-1,-1,-1,-1,-1,-1,-1,-1,-1,-1,-1,-1,-1,-1],"split_conditions":[4.212E1,5.2666664E-1,6.6734E1,7E0,3.536E0,1.5E1,9.923E1,4.9E1,1.718E1,6E0,-8.2730174E-1,5.9E-1,7.722E1,5.466667E-1,2.1E1,-1.652238E-1,-4.3072703E-1,-2.3474313E-1,1.907652E-1,-2.5528133E-2,2.1592197E-1,-7.926938E-3,4.0365547E-1,3.6221874E-1,6.90444E-1,2.4093628E-1,7.4173737E-1,1.4340975E0,4.384262E-1],"split_indices":[0,54,51,19,82,27,0,46,13,94,0,2,0,87,31,0,0,0,0,0,0,0,0,0,0,0,0,0,0],"split_type":[0,0,0,0,0,0,0,0,0,0,0,0,0,0,0,0,0,0,0,0,0,0,0,0,0,0,0,0,0],"sum_hessian":[2.042E3,1.268E3,7.74E2,9.4E2,3.28E2,6.3E2,1.44E2,5.41E2,3.99E2,3.24E2,4E0,2.35E2,3.95E2,1.21E2,2.3E1,8.4E1,4.57E2,3.73E2,2.6E1,2.42E2,8.2E1,1.89E2,4.6E1,3.5E2,4.5E1,2.1E1,1E2,1.8E1,5E0],"tree_param":{"num_deleted":"0","num_feature":"100","num_nodes":"29","size_leaf_vector":"1"}},{"base_weights":[5.3883316E-3,-2.2342606E1,3.659842E1,-3.0927427E1,2.279465E0,2.767285E1,7.518763E1,-3.958523E1,-2.159275E1,3.5701094E0,-8.206831E1,7.3283978E0,3.972744E1,5.8843967E1,1.0415744E2,-4.5657375E-1,-2.3739195E-1,-3.853923E-1,-1.5127787E-1,-2.5274055E-2,2.1378857E-1,-9.0064037E-1,-2.5042695E-1,-7.8480095E-3,3.997051E-1,3.3172417E-1,5.6468934E-1,4.2485932E-1,8.972116E-1,4.993793E-1,1.1616371E0],"categories":[],"categories_nodes":[],"categories_segments":[],"categories_sizes":[],"default_left":[0,0,0,0,0,0,0,0,0,0,0,0,0,0,0,0,0,0,0,0,0,0,0,0,0,0,0,0,0,0,0],"id":4,"left_children":[1,3,5,7,9,11,13,15,17,19,21,23,25,27,29,-1,-1,-1,-1,-1,-1,-1,-1,-1,-1,-1,-1,-1,-1,-1,-1],"loss_changes":[1.6715439E6,2.6830688E5,2.6485312E5,7.519475E4,3.6108914E4,1.5445788E5,6.25245E4,4.5775E4,4.9266047E4,3.534549E4,2.4359375E1,6.2531703E4,4.1584188E4,4.4171688E4,2.7398688E4,0E0,0E0,0E0,0E0,0E0,0E0,0E0,0E0,0E0,0E0,0E0,0E0,0E0,0E0,0E0,0E0],"parents":[2147483647,0,0,1,1,2,2,3,3,4,4,5,5,6,6,7,7,8,8,9,9,10,10,11,11,12,12,13,13,14,14],"right_children":[2,4,6,8,10,12,14,16,18,20,22,24,26,28,30,-1,-1,-1,-1,-1,-1,-1,-1,-1,-1,-1,-1,-1,-1,-1,-1],"split_conditions":[4.212E1,5.2666664E-1,6.6734E1,1.6E0,3.536E0,1.5E1,8.761E1,5E-1,4.25E-1,6E0,5.3E-1,5.9E-1,6.574E1,6.0333335E-1,5.9E-1,-4.5657375E-1,-2.3739195E-1,-3.853923E-1,-1.5127787E-1,-2.5274055E-2,2.1378857E-1,-9.0064037E-1,-2.5042695E-1,-7.8480095E-3,3.997051E-1,3.3172417E-1,5.6468934E-1,4.2485932E-1,8.972116E-1,4.993793E-1,1.1616371E0],"split_indices":[0,54,51,78,82,27,0,1,86,94,1,2,0,86,1,0,0,0,0,0,0,0,0,0,0,0,0,0,0,0,0],"split_type":[0,0,0,0,0,0,0,0,0,0,0,0,0,0,0,0,0,0,0,0,0,0,0,0,0,0,0,0,0,0,0],"sum_hessian":[2.042E3,1.268E3,7.74E2,9.4E2,3.28E2,6.3E2,1.44E2,4.86E2,4.54E2,3.24E2,4E0,2.35E2,3.95E2,9.4E1,5E1,3.5E2,1.36E2,1.24E2,3.3E2,2.42E2,8.2E1,3E0,1E0,1.89E2,4.6E1,2.86E2,1.09E2,6.3E1,3.1E1,1E1,4E1],"tree_param":{"num_deleted":"0","num_feature":"100","num_nodes":"31","size_leaf_vector":"1"}},{"base_weights":[6.3586505E-3,-2.2120897E1,3.623795E1,-3.0619446E1,2.253736E0,2.6474352E1,7.082914E1,-3.9341534E1,-2.1491262E1,3.5349798E0,-8.1477844E1,2.0288311E-1,3.605943E1,6.2426033E1,1.1496842E2,-1.6038656E-1,-4.4031993E-1,-2.6206902E-1,4.1109356E-4,-2.5022408E-2,2.1167625E-1,-8.938856E-1,-2.491748E-1,-1.4945877E-1,1.8624309E-1,3.4187457E-1,1.0060152E0,7.4893177E-1,3.647216E-1,1.3903137E-1,1.2754636E0],"categories":[],"categories_nodes":[],"categories_segments":[],"categories_sizes":[],"default_left":[0,0,0,0,0,0,0,0,0,0,0,0,0,0,0,0,0,0,0,0,0,0,0,0,0,0,0,0,0,0,0],"id":5,"left_children":[1,3,5,7,9,11,13,15,17,19,21,23,25,27,29,-1,-1,-1,-1,-1,-1,-1,-1,-1,-1,-1,-1,-1,-1,-1,-1],"loss_changes":[1.6386862E6,2.629412E5,2.5986912E5,7.4073875E4,3.5583324E4,1.52592E5,5.5877188E4,5.1758375E4,4.691208E4,3.464992E4,9.828125E0,4.5765426E4,5.020525E4,4.418625E4,3.127775E4,0E0,0E0,0E0,0E0,0E0,0E0,0E0,0E0,0E0,0E0,0E0,0E0,0E0,0E0,0E0,0E0],"parents":[2147483647,0,0,1,1,2,2,3,3,4,4,5,5,6,6,7,7,8,8,9,9,10,10,11,11,12,12,13,13,14,14],"right_children":[2,4,6,8,10,12,14,16,18,20,22,24,26,28,30,-1,-1,-1,-1,-1,-1,-1,-1,-1,-1,-1,-1,-1,-1,-1,-1],"split_conditions":[4.212E1,5.2666664E-1,7.399E1,6.37E0,3.536E0,3.92E0,9.923E1,4.02E0,5.3E-1,6E0,5.3E-1,5.6E0,7.772E1,1.928E1,4.1666666E-1,-1.6038656E-1,-4.4031993E-1,-2.6206902E-1,4.1109356E-4,-2.5022408E-2,2.1167625E-1,-8.938856E-1,-2.491748E-1,-1.4945877E-1,1.8624309E-1,3.4187457E-1,1.0060152E0,7.4893177E-1,3.647216E-1,1.3903137E-1,1.2754636E0],"split_indices":[0,54,0,40,82,30,0,47,1,94,1,94,51,50,88,0,0,0,0,0,0,0,0,0,0,0,0,0,0,0,0],"split_type":[0,0,0,0,0,0,0,0,0,0,0,0,0,0,0,0,0,0,0,0,0,0,0,0,0,0,0,0,0,0,0],"sum_hessian":[2.042E3,1.268E3,7.74E2,9.4E2,3.28E2,6.05E2,1.69E2,4.79E2,4.61E2,3.24E2,4E0,1.62E2,4.43E2,1.44E2,2.5E1,8.1E1,3.98E2,3.78E2,8.3E1,2.42E2,8.2E1,3E0,1E0,8.9E1,7.3E1,4.32E2,1.1E1,9.6E1,4.8E1,3E0,2.2E1],"tree_param":{"num_deleted":"0","num_feature":"100","num_nodes":"31","size_leaf_vector":"1"}},{"base_weights":[7.3268777E-3,-2.3385708E1,3.360518E1,-3.1072853E1,4.325129E-1,1.7072794E1,5.5448414E1,-3.9325417E1,-2.1790817E1,2.4660668E0,-6.446332E1,1.122289E0,3.25592E1,4.6328773E1,9.269823E1,-4.697184E-1,-2.580763E-1,-3.7417397E-1,-1.5500008E-1,-1.0267907E-1,1.19437195E-1,-1.9219513E-1,-1.1621319E0,-7.652042E-2,2.2596776E-1,2.9577023E-1,9.908622E-1,5.571696E-1,3.3692807E-1,9.472171E-1,-2.3460907E-1],"categories":[],"categories_nodes":[],"categories_segments":[],"categories_sizes":[],"default_left":[0,0,0,0,0,0,0,0,0,0,0,0,0,0,0,0,0,0,0,0,0,0,0,0,0,0,0,0,0,0,0],"id":6,"left_children":[1,3,5,7,9,11,13,15,17,19,21,23,25,27,29,-1,-1,-1,-1,-1,-1,-1,-1,-1,-1,-1,-1,-1,-1,-1,-1],"loss_changes":[1.6064934E6,2.2064188E5,3.0203375E5,6.892619E4,3.9089875E4,1.1828414E5,1.18338875E5,4.850525E4,4.1789016E4,3.4760145E4,1.8838695E4,4.482947E4,4.5279375E4,3.2762375E4,1.8675438E4,0E0,0E0,0E0,0E0,0E0,0E0,0E0,0E0,0E0,0E0,0E0,0E0,0E0,0E0,0E0,0E0],"parents":[2147483647,0,0,1,1,2,2,3,3,4,4,5,5,6,6,7,7,8,8,9,9,10,10,11,11,12,12,13,13,14,14],"right_children":[2,4,6,8,10,12,14,16,18,20,22,24,26,28,30,-1,-1,-1,-1,-1,-1,-1,-1,-1,-1,-1,-1,-1,-1,-1,-1],"split_conditions":[3.978E1,5.2666664E-1,1.893E1,1.6E0,3.38E2,5.45E-1,8.67E1,4.9E-1,4.25E-1,5.4E-1,4.76E0,2.08E0,6.4E-1,3.36E2,8.25E0,-4.697184E-1,-2.580763E-1,-3.7417397E-1,-1.5500008E-1,-1.0267907E-1,1.19437195E-1,-1.9219513E-1,-1.1621319E0,-7.652042E-2,2.2596776E-1,2.9577023E-1,9.908622E-1,5.571696E-1,3.3692807E-1,9.472171E-1,-2.3460907E-1],"split_indices":[0,54,42,78,43,54,0,1,86,2,28,99,3,43,95,0,0,0,0,0,0,0,0,0,0,0,0,0,0,0,0],"split_type":[0,0,0,0,0,0,0,0,0,0,0,0,0,0,0,0,0,0,0,0,0,0,0,0,0,0,0,0,0,0,0],"sum_hessian":[2.042E3,1.204E3,8.38E2,9.1E2,2.94E2,4.78E2,3.6E2,4.8E2,4.3E2,2.86E2,8E0,2.36E2,2.42E2,2.91E2,6.9E1,3.05E2,1.75E2,1.22E2,3.08E2,1.22E2,1.64E2,5E0,3E0,1.68E2,6.8E1,2.33E2,9E0,1.65E2,1.26E2,6.8E1,1E0],"tree_param":{"num_deleted":"0","num_feature":"100","num_nodes":"31","size_leaf_vector":"1"}},{"base_weights":[7.4744616E-3,-2.168699E1,3.5530403E1,-3.001516E1,2.1990056E0,2.6816284E1,7.320681E1,-4.0426006E1,-2.2540493E1,3.4674015E0,-8.068652E-1,6.977254E0,3.8571827E1,5.177901E1,9.4213066E1,-1.5509441E-1,-4.74825E-1,-2.4655941E-1,1.9349687E-1,-2.4900975E-2,2.086746E-1,-9.924524E-3,3.9046764E-1,3.2161674E-1,5.4945844E-1,3.9101607E-1,9.1985494E-1,6.046825E-1,1.1197169E0],"categories":[],"categories_nodes":[],"categories_segments":[],"categories_sizes":[],"default_left":[0,0,0,0,0,0,0,0,0,0,0,0,0,0,0,0,0,0,0,0,0,0,0,0,0,0,0,0,0],"id":7,"left_children":[1,3,5,7,9,11,13,15,17,19,-1,21,23,25,27,-1,-1,-1,-1,-1,-1,-1,-1,-1,-1,-1,-1,-1,-1],"loss_changes":[1.5752105E6,2.5250388E5,2.5248231E5,7.2315125E4,3.4868086E4,1.4689172E5,6.0388812E4,6.81865E4,4.9216125E4,3.374173E4,0E0,6.035671E4,3.9797E4,3.412203E4,3.6376125E4,0E0,0E0,0E0,0E0,0E0,0E0,0E0,0E0,0E0,0E0,0E0,0E0,0E0,0E0],"parents":[2147483647,0,0,1,1,2,2,3,3,4,4,5,5,6,6,7,7,8,8,9,9,11,11,12,12,13,13,14,14],"right_children":[2,4,6,8,10,12,14,16,18,20,-1,22,24,26,28,-1,-1,-1,-1,-1,-1,-1,-1,-1,-1,-1,-1,-1,-1],"split_conditions":[4.212E1,5.2666664E-1,6.6734E1,5.04E0,3.536E0,1.5E1,5.925E-1,4.9E1,1.718E1,6E0,-8.068652E-1,5.9E-1,6.574E1,9.25E0,7.772E1,-1.5509441E-1,-4.74825E-1,-2.4655941E-1,1.9349687E-1,-2.4900975E-2,2.086746E-1,-9.924524E-3,3.9046764E-1,3.2161674E-1,5.4945844E-1,3.9101607E-1,9.1985494E-1,6.046825E-1,1.1197169E0],"split_indices":[0,54,51,6,82,27,86,46,13,94,0,2,0,69,51,0,0,0,0,0,0,0,0,0,0,0,0,0,0],"split_type":[0,0,0,0,0,0,0,0,0,0,0,0,0,0,0,0,0,0,0,0,0,0,0,0,0,0,0,0,0],"sum_hessian":[2.042E3,1.268E3,7.74E2,9.4E2,3.28E2,6.3E2,1.44E2,3.91E2,5.49E2,3.24E2,4E0,2.35E2,3.95E2,7.3E1,7.1E1,8.7E1,3.04E2,5.23E2,2.6E1,2.42E2,8.2E1,1.89E2,4.6E1,2.86E2,1.09E2,5.7E1,1.6E1,2.6E1,4.5E1],"tree_param":{"num_deleted":"0","num_feature":"100","num_nodes":"29","size_leaf_vector":"1"}},{"base_weights":[8.8771945E-3,-2.2929907E1,3.295432E1,-3.0460861E1,4.0442804E-1,1.672906E1,5.439184E1,-3.8587215E1,-2.13211E1,2.419912E0,-6.3912056E1,1.0243E0,3.1977201E1,4.5420097E1,9.103981E1,-4.614749E-1,-2.5223398E-1,-3.6763126E-1,-1.5105274E-1,-9.0715036E-2,1.2829871E-1,-1.9116455E-1,-1.1512744E0,-7.6326884E-2,2.2212805E-1,2.9034895E-1,9.7629446E-1,5.474289E-1,3.2876757E-1,9.3041515E-1,-2.3539093E-1],"categories":[],"categories_nodes":[],"categories_segments":[],"categories_sizes":[],"default_left":[0,0,0,0,0,0,0,0,0,0,0,0,0,0,0,0,0,0,0,0,0,0,0,0,0,0,0,0,0,0,0],"id":8,"left_children":[1,3,5,7,9,11,13,15,17,19,21,23,25,27,29,-1,-1,-1,-1,-1,-1,-1,-1,-1,-1,-1,-1,-1,-1,-1,-1],"loss_changes":[1.5447089E6,2.1176675E5,2.9091894E5,6.6839875E4,3.839517E4,1.1467261E5,1.14560375E5,4.7433438E4,4.081422E4,3.4448812E4,1.8447188E4,4.364213E4,4.4105438E4,3.2346375E4,1.8244938E4,0E0,0E0,0E0,0E0,0E0,0E0,0E0,0E0,0E0,0E0,0E0,0E0,0E0,0E0,0E0,0E0],"parents":[2147483647,0,0,1,1,2,2,3,3,4,4,5,5,6,6,7,7,8,8,9,9,10,10,11,11,12,12,13,13,14,14],"right_children":[2,4,6,8,10,12,14,16,18,20,22,24,26,28,30,-1,-1,-1,-1,-1,-1,-1,-1,-1,-1,-1,-1,-1,-1,-1,-1],"split_conditions":[3.978E1,5.2666664E-1,1.893E1,1.6E0,3.38E2,5.45E-1,8.67E1,4.9E-1,4.25E-1,8E0,4.76E0,2.08E0,6.4E-1,3.36E2,8.25E0,-4.614749E-1,-2.5223398E-1,-3.6763126E-1,-1.5105274E-1,-9.0715036E-2,1.2829871E-1,-1.9116455E-1,-1.1512744E0,-7.6326884E-2,2.2212805E-1,2.9034895E-1,9.7629446E-1,5.474289E-1,3.2876757E-1,9.3041515E-1,-2.3539093E-1],"split_indices":[0,54,42,78,43,54,0,1,86,27,28,99,3,43,95,0,0,0,0,0,0,0,0,0,0,0,0,0,0,0,0],"split_type":[0,0,0,0,0,0,0,0,0,0,0,0,0,0,0,0,0,0,0,0,0,0,0,0,0,0,0,0,0,0,0],"sum_hessian":[2.042E3,1.204E3,8.38E2,9.1E2,2.94E2,4.78E2,3.6E2,4.8E2,4.3E2,2.86E2,8E0,2.36E2,2.42E2,2.91E2,6.9E1,3.05E2,1.75E2,1.22E2,3.08E2,1.36E2,1.5E2,5E0,3E0,1.68E2,6.8E1,2.33E2,9E0,1.65E2,1.26E2,6.8E1,1E0],"tree_param":{"num_deleted":"0","num_feature":"100","num_nodes":"31","size_leaf_vector":"1"}},{"base_weights":[9.012141E-3,-2.2702707E1,3.2628338E1,-3.0157597E1,3.959539E-1,1.6564732E1,5.385227E1,-3.820281E1,-2.110909E1,2.3958375E0,-6.3422104E1,1.0146981E0,3.1662645E1,4.4968887E1,9.0139336E1,-4.5687512E-1,-2.4972571E-1,-3.63985E-1,-1.4954701E-1,-1.0196873E-1,1.176861E-1,-1.8957153E-1,-1.14264E0,-1.2175084E-1,1.464674E-1,2.874579E-1,9.675076E-1,5.4198766E-1,3.2550552E-1,9.2124575E-1,-2.3421386E-1],"categories":[],"categories_nodes":[],"categories_segments":[],"categories_sizes":[],"default_left":[0,0,0,0,0,0,0,0,0,0,0,0,0,0,0,0,0,0,0,0,0,0,0,0,0,0,0,0,0,0,0],"id":9,"left_children":[1,3,5,7,9,11,13,15,17,19,21,23,25,27,29,-1,-1,-1,-1,-1,-1,-1,-1,-1,-1,-1,-1,-1,-1,-1,-1],"loss_changes":[1.5142789E6,2.0751044E5,2.8515056E5,6.551175E4,3.780241E4,1.1242419E5,1.1231556E5,4.6489812E4,4.0011484E4,3.3994215E4,1.8180027E4,4.2791793E4,4.3352984E4,3.170475E4,1.7938938E4,0E0,0E0,0E0,0E0,0E0,0E0,0E0,0E0,0E0,0E0,0E0,0E0,0E0,0E0,0E0,0E0],"parents":[2147483647,0,0,1,1,2,2,3,3,4,4,5,5,6,6,7,7,8,8,9,9,10,10,11,11,12,12,13,13,14,14],"right_children":[2,4,6,8,10,12,14,16,18,20,22,24,26,28,30,-1,-1,-1,-1,-1,-1,-1,-1,-1,-1,-1,-1,-1,-1,-1,-1],"split_conditions":[3.978E1,5.2666664E-1,1.893E1,1.6E0,3.38E2,5.45E-1,8.67E1,4.9E-1,4.25E-1,5.4E-1,4.76E0,4.5E0,6.4E-1,3.36E2,8.25E0,-4.5687512E-1,-2.4972571E-1,-3.63985E-1,-1.4954701E-1,-1.0196873E-1,1.176861E-1,-1.8957153E-1,-1.14264E0,-1.2175084E-1,1.464674E-1,2.874579E-1,9.675076E-1,5.4198766E-1,3.2550552E-1,9.2124575E-1,-2.3421386E-1],"split_indices":[0,54,42,78,43,54,0,1,86,2,28,94,3,43,95,0,0,0,0,0,0,0,0,0,0,0,0,0,0,0,0],"split_type":[0,0,0,0,0,0,0,0,0,0,0,0,0,0,0,0,0,0,0,0,0,0,0,0,0,0,0,0,0,0,0],"sum_hessian":[2.042E3,1.204E3,8.38E2,9.1E2,2.94E2,4.78E2,3.6E2,4.8E2,4.3E2,2.86E2,8E0,2.36E2,2.42E2,2.91E2,6.9E1,3.05E2,1.75E2,1.22E2,3.08E2,1.22E2,1.64E2,5E0,3E0,1.2E2,1.16E2,2.33E2,9E0,1.65E2,1.26E2,6.8E1,1E0],"tree_param":{"num_deleted":"0","num_feature":"100","num_nodes":"31","size_leaf_vector":"1"}},{"base_weights":[9.065469E-3,-2.105283E1,3.449621E1,-2.9132147E1,2.1194794E0,2.5970406E1,7.1360245E1,-3.9315456E1,-2.1821257E1,3.3701544E0,-7.959829E-1,6.6069746E0,3.7444645E1,5.028E1,9.203494E1,-1.4679447E-1,-4.6294647E-1,-2.5276718E-1,3.4662858E-2,-2.1738553E-2,2.1562682E-1,-1.2150612E-2,3.8087398E-1,2.1643226E-1,4.3755707E-1,3.7830317E-1,8.9797735E-1,5.883355E-1,1.0952195E0],"categories":[],"categories_nodes":[],"categories_segments":[],"categories_sizes":[],"default_left":[0,0,0,0,0,0,0,0,0,0,0,0,0,0,0,0,0,0,0,0,0,0,0,0,0,0,0,0,0],"id":10,"left_children":[1,3,5,7,9,11,13,15,17,19,-1,21,23,25,27,-1,-1,-1,-1,-1,-1,-1,-1,-1,-1,-1,-1,-1,-1],"loss_changes":[1.4846891E6,2.3763938E5,2.4172575E5,6.919869E4,3.3892844E4,1.3994856E5,5.85675E4,6.672069E4,4.8146703E4,3.2826227E4,0E0,5.815915E4,3.8543625E4,3.300967E4,3.5359062E4,0E0,0E0,0E0,0E0,0E0,0E0,0E0,0E0,0E0,0E0,0E0,0E0,0E0,0E0],"parents":[2147483647,0,0,1,1,2,2,3,3,4,4,5,5,6,6,7,7,8,8,9,9,11,11,12,12,13,13,14,14],"right_children":[2,4,6,8,10,12,14,16,18,20,-1,22,24,26,28,-1,-1,-1,-1,-1,-1,-1,-1,-1,-1,-1,-1,-1,-1],"split_conditions":[4.212E1,5.2666664E-1,6.6734E1,5.04E0,3.536E0,1.5E1,5.925E-1,4.9E1,5.4E-1,2.285E0,-7.959829E-1,5.9E-1,5.5E-1,9.25E0,7.772E1,-1.4679447E-1,-4.6294647E-1,-2.5276718E-1,3.4662858E-2,-2.1738553E-2,2.1562682E-1,-1.2150612E-2,3.8087398E-1,2.1643226E-1,4.3755707E-1,3.7830317E-1,8.9797735E-1,5.883355E-1,1.0952195E0],"split_indices":[0,54,51,6,82,27,86,46,1,93,0,2,3,69,51,0,0,0,0,0,0,0,0,0,0,0,0,0,0],"split_type":[0,0,0,0,0,0,0,0,0,0,0,0,0,0,0,0,0,0,0,0,0,0,0,0,0,0,0,0,0],"sum_hessian":[2.042E3,1.268E3,7.74E2,9.4E2,3.28E2,6.3E2,1.44E2,3.91E2,5.49E2,3.24E2,4E0,2.35E2,3.95E2,7.3E1,7.1E1,8.7E1,3.04E2,4.83E2,6.6E1,2.49E2,7.5E1,1.89E2,4.6E1,1.14E2,2.81E2,5.7E1,1.6E1,2.6E1,4.5E1],"tree_param":{"num_deleted":"0","num_feature":"100","num_nodes":"29","size_leaf_vector":"1"}},{"base_weights":[1.0218325E-2,-2.2260622E1,3.1996334E1,-2.9564112E1,3.6900738E-1,1.6224083E1,5.2835426E1,-3.7490723E1,-2.0649347E1,2.350417E0,-6.285694E1,9.3230325E-1,3.1071524E1,4.4092102E1,8.855279E1,-4.358999E-1,-2.1697791E-1,-3.5764313E-1,-1.4565882E-1,-9.003472E-2,1.2636061E-1,-1.8820627E-1,-1.1319717E0,-7.562999E-2,2.1726125E-1,2.8192398E-1,9.5335835E-1,5.3248554E-1,3.1776637E-1,9.051713E-1,-2.3493437E-1],"categories":[],"categories_nodes":[],"categories_segments":[],"categories_sizes":[],"default_left":[0,0,0,0,0,0,0,0,0,0,0,0,0,0,0,0,0,0,0,0,0,0,0,0,0,0,0,0,0,0,0],"id":11,"left_children":[1,3,5,7,9,11,13,15,17,19,21,23,25,27,29,-1,-1,-1,-1,-1,-1,-1,-1,-1,-1,-1,-1,-1,-1,-1,-1],"loss_changes":[1.456059E6,1.9916762E5,2.749048E5,6.3600562E4,3.7104305E4,1.0872501E5,1.0883156E5,4.538675E4,3.9110094E4,3.3630223E4,1.7820746E4,4.2030316E4,4.227328E4,3.1235625E4,1.7533375E4,0E0,0E0,0E0,0E0,0E0,0E0,0E0,0E0,0E0,0E0,0E0,0E0,0E0,0E0,0E0,0E0],"parents":[2147483647,0,0,1,1,2,2,3,3,4,4,5,5,6,6,7,7,8,8,9,9,10,10,11,11,12,12,13,13,14,14],"right_children":[2,4,6,8,10,12,14,16,18,20,22,24,26,28,30,-1,-1,-1,-1,-1,-1,-1,-1,-1,-1,-1,-1,-1,-1,-1,-1],"split_conditions":[3.978E1,5.2666664E-1,1.893E1,1.6E0,3.38E2,5.45E-1,8.67E1,5E-1,4.25E-1,8E0,4.76E0,2.08E0,6.4E-1,3.36E2,8.25E0,-4.358999E-1,-2.1697791E-1,-3.5764313E-1,-1.4565882E-1,-9.003472E-2,1.2636061E-1,-1.8820627E-1,-1.1319717E0,-7.562999E-2,2.1726125E-1,2.8192398E-1,9.5335835E-1,5.3248554E-1,3.1776637E-1,9.051713E-1,-2.3493437E-1],"split_indices":[0,54,42,78,43,54,0,1,86,27,28,99,3,43,95,0,0,0,0,0,0,0,0,0,0,0,0,0,0,0,0],"split_type":[0,0,0,0,0,0,0,0,0,0,0,0,0,0,0,0,0,0,0,0,0,0,0,0,0,0,0,0,0,0,0],"sum_hessian":[2.042E3,1.204E3,8.38E2,9.1E2,2.94E2,4.78E2,3.6E2,4.8E2,4.3E2,2.86E2,8E0,2.36E2,2.42E2,2.91E2,6.9E1,3.45E2,1.35E2,1.22E2,3.08E2,1.36E2,1.5E2,5E0,3E0,1.68E2,6.8E1,2.33E2,9E0,1.65E2,1.26E2,6.8E1,1E0],"tree_param":{"num_deleted":"0","num_feature":"100","num_nodes":"31","size_leaf_vector":"1"}},{"base_weights":[1.0341979E-2,-2.204004E1,3.1679829E1,-3.3977627E1,-8.412433E0,1.3807084E1,4.9733765E1,-4.557977E1,-2.752156E1,-1.2094894E1,2.3311937E1,-8.593381E0,2.2501669E1,4.204989E1,8.478133E1,-5.43322E-1,-3.341498E-1,-3.4304667E-1,-1.0756787E-1,-2.3200847E-1,-2.6815265E-2,3.1277376E-1,-6.8970287E-1,-1.6669175E-1,3.221526E-1,6.1584137E-2,3.2499865E-1,3.9864334E-1,1.0458863E0,4.65619E-1,9.7137815E-1],"categories":[],"categories_nodes":[],"categories_segments":[],"categories_sizes":[],"default_left":[0,0,0,0,0,0,0,0,0,0,0,0,0,0,0,0,0,0,0,0,0,0,0,0,0,0,0,0,0,0,0],"id":12,"left_children":[1,3,5,7,9,11,13,15,17,19,21,23,25,27,29,-1,-1,-1,-1,-1,-1,-1,-1,-1,-1,-1,-1,-1,-1,-1,-1],"loss_changes":[1.4273748E6,1.9574438E5,2.700363E5,4.6834062E4,6.617055E4,8.2578016E4,1.087335E5,2.2460031E4,4.6823656E4,5.2837273E4,4.5526254E4,3.975491E4,4.963778E4,4.2849312E4,3.0424125E4,0E0,0E0,0E0,0E0,0E0,0E0,0E0,0E0,0E0,0E0,0E0,0E0,0E0,0E0,0E0,0E0],"parents":[2147483647,0,0,1,1,2,2,3,3,4,4,5,5,6,6,7,7,8,8,9,9,10,10,11,11,12,12,13,13,14,14],"right_children":[2,4,6,8,10,12,14,16,18,20,22,24,26,28,30,-1,-1,-1,-1,-1,-1,-1,-1,-1,-1,-1,-1,-1,-1,-1,-1],"split_conditions":[3.978E1,4.9E-1,5.725E1,4.38E-1,5.8E-1,1.24E0,8.67E1,4.5666668E-1,9E0,1.32E0,1.121E1,5.7E1,5.35E-1,6.4E-1,5.9E-1,-5.43322E-1,-3.341498E-1,-3.4304667E-1,-1.0756787E-1,-2.3200847E-1,-2.6815265E-2,3.1277376E-1,-6.8970287E-1,-1.6669175E-1,3.221526E-1,6.1584137E-2,3.2499865E-1,3.9864334E-1,1.0458863E0,4.65619E-1,9.7137815E-1],"split_indices":[0,2,0,87,2,99,0,55,27,37,50,26,54,3,1,0,0,0,0,0,0,0,0,0,0,0,0,0,0,0,0],"split_type":[0,0,0,0,0,0,0,0,0,0,0,0,0,0,0,0,0,0,0,0,0,0,0,0,0,0,0,0,0,0,0],"sum_hessian":[2.042E3,1.204E3,8.38E2,6.41E2,5.63E2,4.22E2,4.16E2,2.27E2,4.14E2,5.05E2,5.8E1,1.18E2,3.04E2,3.43E2,7.3E1,1.3E2,9.7E1,2.94E2,1.2E2,2.31E2,2.74E2,5.4E1,4E0,9.9E1,1.9E1,1.16E2,1.88E2,3.33E2,1E1,1.9E1,5.4E1],"tree_param":{"num_deleted":"0","num_feature":"100","num_nodes":"31","size_leaf_vector":"1"}},{"base_weights":[1.09477E-2,-2.1821281E1,3.1367117E1,-2.8996273E1,4.1003686E-1,1.5860209E1,5.1855873E1,-3.6803596E1,-2.021595E1,2.3744218E0,-6.2277573E1,8.396058E-1,3.0444666E1,4.329289E1,8.683495E1,-4.4084433E-1,-2.393576E-1,-3.5019836E-1,-1.4257717E-1,-1.0001119E-1,1.15854345E-1,-1.8641439E-1,-1.1216239E0,-1.2047771E-1,1.41604E-1,2.7615246E-1,9.360859E-1,5.2372545E-1,3.1084102E-1,8.878507E-1,-2.3861663E-1],"categories":[],"categories_nodes":[],"categories_segments":[],"categories_sizes":[],"default_left":[0,0,0,0,0,0,0,0,0,0,0,0,0,0,0,0,0,0,0,0,0,0,0,0,0,0,0,0,0,0,0],"id":13,"left_children":[1,3,5,7,9,11,13,15,17,19,21,23,25,27,29,-1,-1,-1,-1,-1,-1,-1,-1,-1,-1,-1,-1,-1,-1,-1,-1],"loss_changes":[1.3992712E6,1.9222094E5,2.657423E5,6.170575E4,3.6474938E4,1.04907695E5,1.04369375E5,4.4009062E4,3.7517062E4,3.2831363E4,1.7500156E4,4.0856414E4,4.084322E4,3.0740625E4,1.72295E4,0E0,0E0,0E0,0E0,0E0,0E0,0E0,0E0,0E0,0E0,0E0,0E0,0E0,0E0,0E0,0E0],"parents":[2147483647,0,0,1,1,2,2,3,3,4,4,5,5,6,6,7,7,8,8,9,9,10,10,11,11,12,12,13,13,14,14],"right_children":[2,4,6,8,10,12,14,16,18,20,22,24,26,28,30,-1,-1,-1,-1,-1,-1,-1,-1,-1,-1,-1,-1,-1,-1,-1,-1],"split_conditions":[3.978E1,5.2666664E-1,1.893E1,1.6E0,3.38E2,5.45E-1,8.67E1,4.9E-1,4.25E-1,5.4E-1,4.76E0,4.5E0,6.4E-1,3.36E2,8.25E0,-4.4084433E-1,-2.393576E-1,-3.5019836E-1,-1.4257717E-1,-1.0001119E-1,1.15854345E-1,-1.8641439E-1,-1.1216239E0,-1.2047771E-1,1.41604E-1,2.7615246E-1,9.360859E-1,5.2372545E-1,3.1084102E-1,8.878507E-1,-2.3861663E-1],"split_indices":[0,54,42,78,43,54,0,1,86,2,28,94,3,43,95,0,0,0,0,0,0,0,0,0,0,0,0,0,0,0,0],"split_type":[0,0,0,0,0,0,0,0,0,0,0,0,0,0,0,0,0,0,0,0,0,0,0,0,0,0,0,0,0,0,0],"sum_hessian":[2.042E3,1.204E3,8.38E2,9.1E2,2.94E2,4.78E2,3.6E2,4.8E2,4.3E2,2.86E2,8E0,2.36E2,2.42E2,2.91E2,6.9E1,3.05E2,1.75E2,1.22E2,3.08E2,1.22E2,1.64E2,5E0,3E0,1.2E2,1.16E2,2.33E2,9E0,1.65E2,1.26E2,6.8E1,1E0],"tree_param":{"num_deleted":"0","num_feature":"100","num_nodes":"31","size_leaf_vector":"1"}},{"base_weights":[1.0969837E-2,-2.0235437E1,3.3162815E1,-2.8012424E1,2.069669E0,2.4877686E1,6.8988716E1,-3.7901897E1,-2.0912998E1,3.3016477E0,-7.8422874E-1,6.077166E0,3.601921E1,5.3011875E1,9.572186E1,-1.3588576E-1,-4.4792616E-1,-2.2972463E-1,1.9830437E-1,-2.4685541E-2,2.0155351E-1,-1.5622558E-2,3.6830634E-1,2.007884E-1,4.1927132E-1,3.8357422E-1,8.250765E-1,1.0690932E0,2.9148823E-1],"categories":[],"categories_nodes":[],"categories_segments":[],"categories_sizes":[],"default_left":[0,0,0,0,0,0,0,0,0,0,0,0,0,0,0,0,0,0,0,0,0,0,0,0,0,0,0,0,0],"id":14,"left_children":[1,3,5,7,9,11,13,15,17,19,-1,21,23,25,27,-1,-1,-1,-1,-1,-1,-1,-1,-1,-1,-1,-1,-1,-1],"loss_changes":[1.3719445E6,2.2018706E5,2.2832094E5,6.5274562E4,3.2884242E4,1.3195447E5,5.6856688E4,6.5065562E4,4.6605906E4,3.165577E4,0E0,5.550308E4,3.645122E4,3.703397E4,3.6357188E4,0E0,0E0,0E0,0E0,0E0,0E0,0E0,0E0,0E0,0E0,0E0,0E0,0E0,0E0],"parents":[2147483647,0,0,1,1,2,2,3,3,4,4,5,5,6,6,7,7,8,8,9,9,11,11,12,12,13,13,14,14],"right_children":[2,4,6,8,10,12,14,16,18,20,-1,22,24,26,28,-1,-1,-1,-1,-1,-1,-1,-1,-1,-1,-1,-1,-1,-1],"split_conditions":[4.212E1,5.2666664E-1,6.6734E1,5.04E0,3.536E0,1.5E1,6.0333335E-1,4.9E1,1.718E1,6E0,-7.8422874E-1,5.9E-1,9.095E0,8.761E1,6.333333E-1,-1.3588576E-1,-4.4792616E-1,-2.2972463E-1,1.9830437E-1,-2.4685541E-2,2.0155351E-1,-1.5622558E-2,3.6830634E-1,2.007884E-1,4.1927132E-1,3.8357422E-1,8.250765E-1,1.0690932E0,2.9148823E-1],"split_indices":[0,54,51,6,82,27,86,46,13,94,0,2,90,0,87,0,0,0,0,0,0,0,0,0,0,0,0,0,0],"split_type":[0,0,0,0,0,0,0,0,0,0,0,0,0,0,0,0,0,0,0,0,0,0,0,0,0,0,0,0,0],"sum_hessian":[2.042E3,1.268E3,7.74E2,9.4E2,3.28E2,6.3E2,1.44E2,3.91E2,5.49E2,3.24E2,4E0,2.35E2,3.95E2,9.2E1,5.2E1,8.7E1,3.04E2,5.23E2,2.6E1,2.42E2,8.2E1,1.89E2,4.6E1,1.08E2,2.87E2,6.3E1,2.9E1,4.4E1,8E0],"tree_param":{"num_deleted":"0","num_feature":"100","num_nodes":"29","size_leaf_vector":"1"}},{"base_weights":[1.2000145E-2,-2.1395922E1,3.0758764E1,-3.3034878E1,-8.109386E0,1.3302867E1,4.8392063E1,-4.445527E1,-2.6680943E1,-1.17213E1,2.3004816E1,-8.586273E0,2.1799604E1,4.0931595E1,8.241921E1,-5.31003E-1,-3.2445532E-1,-3.3318573E-1,-1.027778E-1,-2.2608002E-1,-2.4942605E-2,3.0879927E-1,-6.82224E-1,-1.6518432E-1,3.1503835E-1,1.598203E-1,4.979699E-1,3.8786745E-1,1.0233592E0,4.487646E-1,9.4572586E-1],"categories":[],"categories_nodes":[],"categories_segments":[],"categories_sizes":[],"default_left":[0,0,0,0,0,0,0,0,0,0,0,0,0,0,0,0,0,0,0,0,0,0,0,0,0,0,0,0,0,0,0],"id":15,"left_children":[1,3,5,7,9,11,13,15,17,19,21,23,25,27,29,-1,-1,-1,-1,-1,-1,-1,-1,-1,-1,-1,-1,-1,-1,-1,-1],"loss_changes":[1.3454105E6,1.8607506E5,2.5760469E5,4.540025E4,6.3652996E4,7.8859375E4,1.02485375E5,2.1949125E4,4.4842E4,5.077233E4,4.4493758E4,3.836253E4,4.888158E4,4.13365E4,2.9519969E4,0E0,0E0,0E0,0E0,0E0,0E0,0E0,0E0,0E0,0E0,0E0,0E0,0E0,0E0,0E0,0E0],"parents":[2147483647,0,0,1,1,2,2,3,3,4,4,5,5,6,6,7,7,8,8,9,9,10,10,11,11,12,12,13,13,14,14],"right_children":[2,4,6,8,10,12,14,16,18,20,22,24,26,28,30,-1,-1,-1,-1,-1,-1,-1,-1,-1,-1,-1,-1,-1,-1,-1,-1],"split_conditions":[3.978E1,4.9E-1,5.725E1,4.38E-1,5.8E-1,1.24E0,8.67E1,4.5666668E-1,9E0,1.32E0,1.121E1,5.7E1,3.72E0,6.4E-1,5.9E-1,-5.31003E-1,-3.2445532E-1,-3.3318573E-1,-1.027778E-1,-2.2608002E-1,-2.4942605E-2,3.0879927E-1,-6.82224E-1,-1.6518432E-1,3.1503835E-1,1.598203E-1,4.979699E-1,3.8786745E-1,1.0233592E0,4.487646E-1,9.4572586E-1],"split_indices":[0,2,0,87,2,99,0,55,27,37,50,26,38,3,1,0,0,0,0,0,0,0,0,0,0,0,0,0,0,0,0],"split_type":[0,0,0,0,0,0,0,0,0,0,0,0,0,0,0,0,0,0,0,0,0,0,0,0,0,0,0,0,0,0,0],"sum_hessian":[2.042E3,1.204E3,8.38E2,6.41E2,5.63E2,4.22E2,4.16E2,2.27E2,4.14E2,5.05E2,5.8E1,1.18E2,3.04E2,3.43E2,7.3E1,1.3E2,9.7E1,2.94E2,1.2E2,2.31E2,2.74E2,5.4E1,4E0,9.9E1,1.9E1,2.53E2,5.1E1,3.33E2,1E1,1.9E1,5.4E1],"tree_param":{"num_deleted":"0","num_feature":"100","num_nodes":"31","size_leaf_vector":"1"}},{"base_weights":[1.271491E-2,-1.8560852E1,3.4759876E1,-3.1828491E1,-5.4435086E0,1.8077484E1,5.225554E1,-4.4014465E1,-2.536819E1,-2.1481363E1,1.8582078E0,7.77423E0,4.3276276E1,4.396615E1,8.4429756E1,-5.257334E-1,-3.2124382E-1,-3.2247692E-1,-9.674328E-2,-2.4786404E-1,1.1155825E-1,-6.725078E-2,1.2190175E-1,-2.71939E-2,2.644608E-1,1.7305994E-1,5.9391284E-1,5.494991E-1,3.0279782E-1,8.6360824E-1,-2.4407013E-1],"categories":[],"categories_nodes":[],"categories_segments":[],"categories_sizes":[],"default_left":[0,0,0,0,0,0,0,0,0,0,0,0,0,0,0,0,0,0,0,0,0,0,0,0,0,0,0,0,0,0,0],"id":16,"left_children":[1,3,5,7,9,11,13,15,17,19,21,23,25,27,29,-1,-1,-1,-1,-1,-1,-1,-1,-1,-1,-1,-1,-1,-1,-1,-1],"loss_changes":[1.3191539E6,2.316429E5,2.068665E5,5.0999438E4,7.861662E4,9.4687984E4,8.8834375E4,2.151375E4,4.665322E4,2.2928625E4,4.1053168E4,5.1211035E4,4.3334375E4,4.0127312E4,1.6819812E4,0E0,0E0,0E0,0E0,0E0,0E0,0E0,0E0,0E0,0E0,0E0,0E0,0E0,0E0,0E0,0E0],"parents":[2147483647,0,0,1,1,2,2,3,3,4,4,5,5,6,6,7,7,8,8,9,9,10,10,11,11,12,12,13,13,14,14],"right_children":[2,4,6,8,10,12,14,16,18,20,22,24,26,28,30,-1,-1,-1,-1,-1,-1,-1,-1,-1,-1,-1,-1,-1,-1,-1,-1],"split_conditions":[4.468E1,4.9E-1,1.893E1,4.38E-1,1.3E1,5.9E-1,8.67E1,4.5666668E-1,9E0,5.8E-1,5.4E-1,5.673E1,5.75E-1,3.36E2,8.25E0,-5.257334E-1,-3.2124382E-1,-3.2247692E-1,-9.674328E-2,-2.4786404E-1,1.1155825E-1,-6.725078E-2,1.2190175E-1,-2.71939E-2,2.644608E-1,1.7305994E-1,5.9391284E-1,5.494991E-1,3.0279782E-1,8.6360824E-1,-2.4407013E-1],"split_indices":[0,2,42,87,26,2,0,55,27,3,2,0,52,43,95,0,0,0,0,0,0,0,0,0,0,0,0,0,0,0,0],"split_type":[0,0,0,0,0,0,0,0,0,0,0,0,0,0,0,0,0,0,0,0,0,0,0,0,0,0,0,0,0,0,0],"sum_hessian":[2.042E3,1.331E3,7.11E2,6.61E2,6.7E2,3.65E2,3.46E2,2.27E2,4.34E2,2.09E2,4.61E2,2.6E2,1.05E2,2.77E2,6.9E1,1.3E2,9.7E1,3.01E2,1.33E2,1.9E2,1.9E1,2.52E2,2.09E2,1.67E2,9.3E1,4.1E1,6.4E1,1.52E2,1.25E2,6.8E1,1E0],"tree_param":{"num_deleted":"0","num_feature":"100","num_nodes":"31","size_leaf_vector":"1"}},{"base_weights":[1.3141768E-2,-2.098248E1,3.0167742E1,-2.7903065E1,4.6035466E-1,1.3057835E1,4.7451492E1,-3.5507175E1,-1.9352064E1,2.4078767E0,-6.169511E1,-8.525989E0,2.143625E1,4.0138702E1,8.080483E1,-4.1370514E-1,-2.0329078E-1,-3.259189E-1,-1.3137797E-1,-8.6638555E-2,1.2437144E-1,-1.8528573E-1,-1.1102113E0,-1.6326533E-1,3.0903038E-1,1.5697384E-1,4.905617E-1,3.801827E-1,1.0087371E0,4.371957E-1,9.2821205E-1],"categories":[],"categories_nodes":[],"categories_segments":[],"categories_sizes":[],"default_left":[0,0,0,0,0,0,0,0,0,0,0,0,0,0,0,0,0,0,0,0,0,0,0,0,0,0,0,0,0,0,0],"id":17,"left_children":[1,3,5,7,9,11,13,15,17,19,21,23,25,27,29,-1,-1,-1,-1,-1,-1,-1,-1,-1,-1,-1,-1,-1,-1,-1,-1],"loss_changes":[1.294086E6,1.7883112E5,2.4749231E5,5.8548625E4,3.5858047E4,7.667735E4,9.846531E4,4.196525E4,3.5032688E4,3.1976625E4,1.710604E4,3.7105125E4,4.7574594E4,4.046675E4,2.8918531E4,0E0,0E0,0E0,0E0,0E0,0E0,0E0,0E0,0E0,0E0,0E0,0E0,0E0,0E0,0E0,0E0],"parents":[2147483647,0,0,1,1,2,2,3,3,4,4,5,5,6,6,7,7,8,8,9,9,10,10,11,11,12,12,13,13,14,14],"right_children":[2,4,6,8,10,12,14,16,18,20,22,24,26,28,30,-1,-1,-1,-1,-1,-1,-1,-1,-1,-1,-1,-1,-1,-1,-1,-1],"split_conditions":[3.978E1,5.2666664E-1,5.725E1,1.6E0,3.38E2,1.24E0,8.67E1,5E-1,4.38E-1,8E0,4.76E0,5.7E1,3.72E0,6.4E-1,5.9E-1,-4.1370514E-1,-2.0329078E-1,-3.259189E-1,-1.3137797E-1,-8.6638555E-2,1.2437144E-1,-1.8528573E-1,-1.1102113E0,-1.6326533E-1,3.0903038E-1,1.5697384E-1,4.905617E-1,3.801827E-1,1.0087371E0,4.371957E-1,9.2821205E-1],"split_indices":[0,54,0,78,43,99,0,1,87,27,28,26,38,3,1,0,0,0,0,0,0,0,0,0,0,0,0,0,0,0,0],"split_type":[0,0,0,0,0,0,0,0,0,0,0,0,0,0,0,0,0,0,0,0,0,0,0,0,0,0,0,0,0,0,0],"sum_hessian":[2.042E3,1.204E3,8.38E2,9.1E2,2.94E2,4.22E2,4.16E2,4.8E2,4.3E2,2.86E2,8E0,1.18E2,3.04E2,3.43E2,7.3E1,3.45E2,1.35E2,1.36E2,2.94E2,1.36E2,1.5E2,5E0,3E0,9.9E1,1.9E1,2.53E2,5.1E1,3.33E2,1E1,1.9E1,5.4E1],"tree_param":{"num_deleted":"0","num_feature":"100","num_nodes":"31","size_leaf_vector":"1"}},{"base_weights":[1.3596649E-2,-2.0774601E1,2.987029E1,-3.2085316E1,-7.8628063E0,1.5016629E1,4.949642E1,-4.3216896E1,-2.5892338E1,-1.1411179E1,2.2702263E1,4.827438E-1,2.9129858E1,4.134519E1,8.27916E1,-5.168689E-1,-3.1453773E-1,-3.2351032E-1,-9.9319436E-2,-2.2070478E-1,-2.37711E-2,3.0484697E-1,-6.7445004E-1,-7.688113E-2,2.0488428E-1,2.640077E-1,9.007756E-1,5.0276744E-1,2.9345322E-1,8.4708846E-1,-2.4749084E-1],"categories":[],"categories_nodes":[],"categories_segments":[],"categories_sizes":[],"default_left":[0,0,0,0,0,0,0,0,0,0,0,0,0,0,0,0,0,0,0,0,0,0,0,0,0,0,0,0,0,0,0],"id":18,"left_children":[1,3,5,7,9,11,13,15,17,19,21,23,25,27,29,-1,-1,-1,-1,-1,-1,-1,-1,-1,-1,-1,-1,-1,-1,-1,-1],"loss_changes":[1.2686429E6,1.757279E5,2.4384188E5,4.3139E4,6.142838E4,9.823844E4,9.455125E4,2.1090719E4,4.245828E4,4.8673734E4,4.3448406E4,3.8898387E4,3.80405E4,2.9820438E4,1.6529188E4,0E0,0E0,0E0,0E0,0E0,0E0,0E0,0E0,0E0,0E0,0E0,0E0,0E0,0E0,0E0,0E0],"parents":[2147483647,0,0,1,1,2,2,3,3,4,4,5,5,6,6,7,7,8,8,9,9,10,10,11,11,12,12,13,13,14,14],"right_children":[2,4,6,8,10,12,14,16,18,20,22,24,26,28,30,-1,-1,-1,-1,-1,-1,-1,-1,-1,-1,-1,-1,-1,-1,-1,-1],"split_conditions":[3.978E1,4.9E-1,1.893E1,4.38E-1,5.8E-1,5.45E-1,8.67E1,4.5666668E-1,9E0,1.32E0,1.121E1,2.08E0,6.4E-1,3.36E2,8.25E0,-5.168689E-1,-3.1453773E-1,-3.2351032E-1,-9.9319436E-2,-2.2070478E-1,-2.37711E-2,3.0484697E-1,-6.7445004E-1,-7.688113E-2,2.0488428E-1,2.640077E-1,9.007756E-1,5.0276744E-1,2.9345322E-1,8.4708846E-1,-2.4749084E-1],"split_indices":[0,2,42,87,2,54,0,55,27,37,50,99,3,43,95,0,0,0,0,0,0,0,0,0,0,0,0,0,0,0,0],"split_type":[0,0,0,0,0,0,0,0,0,0,0,0,0,0,0,0,0,0,0,0,0,0,0,0,0,0,0,0,0,0,0],"sum_hessian":[2.042E3,1.204E3,8.38E2,6.41E2,5.63E2,4.78E2,3.6E2,2.27E2,4.14E2,5.05E2,5.8E1,2.36E2,2.42E2,2.91E2,6.9E1,1.3E2,9.7E1,2.94E2,1.2E2,2.31E2,2.74E2,5.4E1,4E0,1.68E2,6.8E1,2.33E2,9E0,1.65E2,1.26E2,6.8E1,1E0],"tree_param":{"num_deleted":"0","num_feature":"100","num_nodes":"31","size_leaf_vector":"1"}},{"base_weights":[1.3849603E-2,-1.8023048E1,3.3757015E1,-3.0915869E1,-5.2762976E0,1.7506145E1,5.080042E1,-3.231742E1,2.1024035E1,-2.0977934E1,1.8722305E0,7.3947525E0,4.2237915E1,4.2768665E1,8.197224E1,-4.2788398E-1,-2.6528665E-1,5.138643E-1,-8.4045224E-2,-2.4213655E-1,1.09720975E-1,-6.5251715E-2,1.1980185E-1,-2.8668907E-2,2.5656044E-1,1.6711862E-1,5.808186E-1,5.3561383E-1,2.9323786E-1,4.8721355E-1,9.09221E-1],"categories":[],"categories_nodes":[],"categories_segments":[],"categories_sizes":[],"default_left":[0,0,0,0,0,0,0,0,0,0,0,0,0,0,0,0,0,0,0,0,0,0,0,0,0,0,0,0,0,0,0],"id":19,"left_children":[1,3,5,7,9,11,13,15,17,19,21,23,25,27,29,-1,-1,-1,-1,-1,-1,-1,-1,-1,-1,-1,-1,-1,-1,-1,-1],"loss_changes":[1.2440232E6,2.1873981E5,1.9631344E5,4.8870812E4,7.535473E4,9.121424E4,8.337056E4,3.7960812E4,1.6515262E4,2.1975766E4,3.9292992E4,4.8982566E4,4.189928E4,3.8769125E4,1.6401531E4,0E0,0E0,0E0,0E0,0E0,0E0,0E0,0E0,0E0,0E0,0E0,0E0,0E0,0E0,0E0,0E0],"parents":[2147483647,0,0,1,1,2,2,3,3,4,4,5,5,6,6,7,7,8,8,9,9,10,10,11,11,12,12,13,13,14,14],"right_children":[2,4,6,8,10,12,14,16,18,20,22,24,26,28,30,-1,-1,-1,-1,-1,-1,-1,-1,-1,-1,-1,-1,-1,-1,-1,-1],"split_conditions":[4.468E1,4.9E-1,1.893E1,1.718E1,1.3E1,5.9E-1,8.67E1,4.38E-1,5.482E0,5.8E-1,5.4E-1,5.673E1,5.75E-1,3.36E2,5.9E-1,-4.2788398E-1,-2.6528665E-1,5.138643E-1,-8.4045224E-2,-2.4213655E-1,1.09720975E-1,-6.5251715E-2,1.1980185E-1,-2.8668907E-2,2.5656044E-1,1.6711862E-1,5.808186E-1,5.3561383E-1,2.9323786E-1,4.8721355E-1,9.09221E-1],"split_indices":[0,2,42,13,26,2,0,87,76,3,2,0,52,43,1,0,0,0,0,0,0,0,0,0,0,0,0,0,0,0,0],"split_type":[0,0,0,0,0,0,0,0,0,0,0,0,0,0,0,0,0,0,0,0,0,0,0,0,0,0,0,0,0,0,0],"sum_hessian":[2.042E3,1.331E3,7.11E2,6.61E2,6.7E2,3.65E2,3.46E2,6.44E2,1.7E1,2.09E2,4.61E2,2.6E2,1.05E2,2.77E2,6.9E1,2.27E2,4.17E2,8E0,9E0,1.9E2,1.9E1,2.52E2,2.09E2,1.67E2,9.3E1,4.1E1,6.4E1,1.52E2,1.25E2,1.6E1,5.3E1],"tree_param":{"num_deleted":"0","num_feature":"100","num_nodes":"31","size_leaf_vector":"1"}},{"base_weights":[1.5105618E-2,-2.0371532E1,2.9295063E1,-2.7115963E1,5.2523774E-1,1.2633893E1,4.612571E1,-3.4578835E1,-1.8724415E1,2.4582396E0,-6.1174404E1,-8.51984E0,2.0845894E1,3.903675E1,7.8456474E1,-4.15429E-1,-2.2274385E-1,-3.2601124E-1,-1.314008E-1,-8.393993E-2,1.2288026E-1,-1.8363047E-1,-1.1009784E0,-1.6155794E-1,3.0085918E-1,1.5199994E-1,4.8023063E-1,3.3826405E-1,6.2189823E-1,4.2178673E-1,9.022191E-1],"categories":[],"categories_nodes":[],"categories_segments":[],"categories_sizes":[],"default_left":[0,0,0,0,0,0,0,0,0,0,0,0,0,0,0,0,0,0,0,0,0,0,0,0,0,0,0,0,0,0,0],"id":20,"left_children":[1,3,5,7,9,11,13,15,17,19,21,23,25,27,29,-1,-1,-1,-1,-1,-1,-1,-1,-1,-1,-1,-1,-1,-1,-1,-1],"loss_changes":[1.2201041E6,1.698431E5,2.3468819E5,5.6403938E4,3.533371E4,7.365884E4,9.251019E4,4.0291062E4,3.2970766E4,3.0718908E4,1.6828574E4,3.5566285E4,4.6069125E4,3.9394938E4,2.7779594E4,0E0,0E0,0E0,0E0,0E0,0E0,0E0,0E0,0E0,0E0,0E0,0E0,0E0,0E0,0E0,0E0],"parents":[2147483647,0,0,1,1,2,2,3,3,4,4,5,5,6,6,7,7,8,8,9,9,10,10,11,11,12,12,13,13,14,14],"right_children":[2,4,6,8,10,12,14,16,18,20,22,24,26,28,30,-1,-1,-1,-1,-1,-1,-1,-1,-1,-1,-1,-1,-1,-1,-1,-1],"split_conditions":[3.978E1,5.2666664E-1,5.725E1,1.6E0,3.38E2,1.24E0,8.67E1,4.9E-1,4.25E-1,8E0,4.76E0,5.7E1,3.72E0,6.0333335E-1,5.9E-1,-4.15429E-1,-2.2274385E-1,-3.2601124E-1,-1.314008E-1,-8.393993E-2,1.2288026E-1,-1.8363047E-1,-1.1009784E0,-1.6155794E-1,3.0085918E-1,1.5199994E-1,4.8023063E-1,3.3826405E-1,6.2189823E-1,4.2178673E-1,9.022191E-1],"split_indices":[0,54,0,78,43,99,0,1,86,27,28,26,38,86,1,0,0,0,0,0,0,0,0,0,0,0,0,0,0,0,0],"split_type":[0,0,0,0,0,0,0,0,0,0,0,0,0,0,0,0,0,0,0,0,0,0,0,0,0,0,0,0,0,0,0],"sum_hessian":[2.042E3,1.204E3,8.38E2,9.1E2,2.94E2,4.22E2,4.16E2,4.8E2,4.3E2,2.86E2,8E0,1.18E2,3.04E2,3.43E2,7.3E1,3.05E2,1.75E2,1.22E2,3.08E2,1.36E2,1.5E2,5E0,3E0,9.9E1,1.9E1,2.53E2,5.1E1,2.82E2,6.1E1,1.9E1,5.4E1],"tree_param":{"num_deleted":"0","num_feature":"100","num_nodes":"31","size_leaf_vector":"1"}},{"base_weights":[1.5302616E-2,-2.016977E1,2.9005764E1,-2.684602E1,5.1576364E-1,1.4564148E1,4.808756E1,-3.4234398E1,-1.8538233E1,2.4337935E0,-6.070539E1,3.490302E-1,2.8368341E1,3.752093E1,7.2493454E1,-1.1233194E-1,-3.7865353E-1,-2.1676888E-1,5.272862E-2,-9.441986E-2,1.1271897E-1,-1.8210001E-1,-1.0927212E0,-7.688878E-2,2.003102E-1,2.5687277E-1,8.826835E-1,4.7724184E-1,2.1591999E-1,1.6744371E-1,7.6785934E-1],"categories":[],"categories_nodes":[],"categories_segments":[],"categories_sizes":[],"default_left":[0,0,0,0,0,0,0,0,0,0,0,0,0,0,0,0,0,0,0,0,0,0,0,0,0,0,0,0,0,0,0],"id":21,"left_children":[1,3,5,7,9,11,13,15,17,19,21,23,25,27,29,-1,-1,-1,-1,-1,-1,-1,-1,-1,-1,-1,-1,-1,-1,-1,-1],"loss_changes":[1.1960968E6,1.6642656E5,2.305045E5,5.52835E4,3.4787824E4,9.3983414E4,9.037756E4,3.9746E4,3.2325E4,3.022977E4,1.6584918E4,3.76479E4,3.6757375E4,4.0251344E4,2.4558875E4,0E0,0E0,0E0,0E0,0E0,0E0,0E0,0E0,0E0,0E0,0E0,0E0,0E0,0E0,0E0,0E0],"parents":[2147483647,0,0,1,1,2,2,3,3,4,4,5,5,6,6,7,7,8,8,9,9,10,10,11,11,12,12,13,13,14,14],"right_children":[2,4,6,8,10,12,14,16,18,20,22,24,26,28,30,-1,-1,-1,-1,-1,-1,-1,-1,-1,-1,-1,-1,-1,-1,-1,-1],"split_conditions":[3.978E1,5.2666664E-1,1.893E1,1.6E0,3.38E2,5.45E-1,7.881E1,4.9E1,5.4E-1,5.4E-1,4.76E0,2.08E0,6.4E-1,3.36E2,4.775E-1,-1.1233194E-1,-3.7865353E-1,-2.1676888E-1,5.272862E-2,-9.441986E-2,1.1271897E-1,-1.8210001E-1,-1.0927212E0,-7.688878E-2,2.003102E-1,2.5687277E-1,8.826835E-1,4.7724184E-1,2.1591999E-1,1.6744371E-1,7.6785934E-1],"split_indices":[0,54,42,78,43,54,0,46,1,2,28,99,3,43,96,0,0,0,0,0,0,0,0,0,0,0,0,0,0,0,0],"split_type":[0,0,0,0,0,0,0,0,0,0,0,0,0,0,0,0,0,0,0,0,0,0,0,0,0,0,0,0,0,0,0],"sum_hessian":[2.042E3,1.204E3,8.38E2,9.1E2,2.94E2,4.78E2,3.6E2,4.8E2,4.3E2,2.86E2,8E0,2.36E2,2.42E2,2.53E2,1.07E2,6.6E1,4.14E2,3.8E2,5E1,1.22E2,1.64E2,5E0,3E0,1.68E2,6.8E1,2.33E2,9E0,1.53E2,1E2,8E0,9.9E1],"tree_param":{"num_deleted":"0","num_feature":"100","num_nodes":"31","size_leaf_vector":"1"}},{"base_weights":[1.5630946E-2,-1.7499977E1,3.278357E1,-3.0054192E1,-5.088068E0,1.6959415E1,4.93797E1,-3.1430342E1,2.0927547E1,-2.0447863E1,1.9046695E0,7.0334883E0,4.1239677E1,4.1581425E1,7.964458E1,-4.173233E-1,-2.5735885E-1,5.099467E-1,-8.225616E-2,-2.3625164E-1,1.0917767E-1,-6.276504E-2,1.17519654E-1,-3.0063672E-2,2.4902235E-1,1.6140196E-1,5.6823343E-1,8.986931E-1,3.8485652E-1,1.202383E0,7.0874983E-1],"categories":[],"categories_nodes":[],"categories_segments":[],"categories_sizes":[],"default_left":[0,0,0,0,0,0,0,0,0,0,0,0,0,0,0,0,0,0,0,0,0,0,0,0,0,0,0,0,0,0,0],"id":22,"left_children":[1,3,5,7,9,11,13,15,17,19,21,23,25,27,29,-1,-1,-1,-1,-1,-1,-1,-1,-1,-1,-1,-1,-1,-1,-1,-1],"loss_changes":[1.1731544E6,2.0740166E5,1.8614775E5,4.7102688E4,7.2109055E4,8.7917445E4,7.8585125E4,3.6764438E4,1.6197395E4,2.1186125E4,3.729361E4,4.6898168E4,4.054392E4,3.809903E4,1.6397406E4,0E0,0E0,0E0,0E0,0E0,0E0,0E0,0E0,0E0,0E0,0E0,0E0,0E0,0E0,0E0,0E0],"parents":[2147483647,0,0,1,1,2,2,3,3,4,4,5,5,6,6,7,7,8,8,9,9,10,10,11,11,12,12,13,13,14,14],"right_children":[2,4,6,8,10,12,14,16,18,20,22,24,26,28,30,-1,-1,-1,-1,-1,-1,-1,-1,-1,-1,-1,-1,-1,-1,-1,-1],"split_conditions":[4.468E1,4.9E-1,1.893E1,1.718E1,1.3E1,5.9E-1,8.67E1,4.38E-1,5.482E0,5.8E-1,5.4E-1,5.673E1,5.75E-1,5.917E1,4.34E-1,-4.173233E-1,-2.5735885E-1,5.099467E-1,-8.225616E-2,-2.3625164E-1,1.0917767E-1,-6.276504E-2,1.17519654E-1,-3.0063672E-2,2.4902235E-1,1.6140196E-1,5.6823343E-1,8.986931E-1,3.8485652E-1,1.202383E0,7.0874983E-1],"split_indices":[0,2,42,13,26,2,0,87,76,3,2,0,52,10,53,0,0,0,0,0,0,0,0,0,0,0,0,0,0,0,0],"split_type":[0,0,0,0,0,0,0,0,0,0,0,0,0,0,0,0,0,0,0,0,0,0,0,0,0,0,0,0,0,0,0],"sum_hessian":[2.042E3,1.331E3,7.11E2,6.61E2,6.7E2,3.65E2,3.46E2,6.44E2,1.7E1,2.09E2,4.61E2,2.6E2,1.05E2,2.77E2,6.9E1,2.27E2,4.17E2,8E0,9E0,1.9E2,1.9E1,2.52E2,2.09E2,1.67E2,9.3E1,4.1E1,6.4E1,1.5E1,2.62E2,1E1,5.9E1],"tree_param":{"num_deleted":"0","num_feature":"100","num_nodes":"31","size_leaf_vector":"1"}},{"base_weights":[1.7357107E-2,-1.977835E1,2.8448597E1,-2.6334211E1,5.3407896E-1,1.9808485E1,5.9312565E1,-3.3622555E1,-1.813925E1,2.4394388E0,-6.0285076E1,6.1562705E0,3.2212513E1,4.538385E1,8.854887E1,-4.047959E-1,-2.1509627E-1,-3.071002E-1,-1.2239808E-1,-8.2415745E-2,1.2114004E-1,-1.8067138E-1,-1.0854071E0,-1.2036203E-3,3.4458286E-1,-2.2786011E-1,3.496484E-1,3.5389808E-1,7.0357215E-1,1.0134003E0,2.4682945E-1],"categories":[],"categories_nodes":[],"categories_segments":[],"categories_sizes":[],"default_left":[0,0,0,0,0,0,0,0,0,0,0,0,0,0,0,0,0,0,0,0,0,0,0,0,0,0,0,0,0,0,0],"id":23,"left_children":[1,3,5,7,9,11,13,15,17,19,21,23,25,27,29,-1,-1,-1,-1,-1,-1,-1,-1,-1,-1,-1,-1,-1,-1,-1,-1],"loss_changes":[1.1503969E6,1.604784E5,2.2255969E5,5.3802062E4,3.4332363E4,1.110597E5,7.050331E4,3.90805E4,3.1587312E4,2.9756742E4,1.637426E4,5.5783535E4,5.2869312E4,2.8957781E4,4.487997E4,0E0,0E0,0E0,0E0,0E0,0E0,0E0,0E0,0E0,0E0,0E0,0E0,0E0,0E0,0E0,0E0],"parents":[2147483647,0,0,1,1,2,2,3,3,4,4,5,5,6,6,7,7,8,8,9,9,10,10,11,11,12,12,13,13,14,14],"right_children":[2,4,6,8,10,12,14,16,18,20,22,24,26,28,30,-1,-1,-1,-1,-1,-1,-1,-1,-1,-1,-1,-1,-1,-1,-1,-1],"split_conditions":[3.978E1,5.2666664E-1,6.4176E1,1.6E0,3.38E2,1.7E1,6.0333335E-1,4.9E-1,4.38E-1,8E0,4.76E0,5.9E-1,1.25E2,9.25E0,6.333333E-1,-4.047959E-1,-2.1509627E-1,-3.071002E-1,-1.2239808E-1,-8.2415745E-2,1.2114004E-1,-1.8067138E-1,-1.0854071E0,-1.2036203E-3,3.4458286E-1,-2.2786011E-1,3.496484E-1,3.5389808E-1,7.0357215E-1,1.0134003E0,2.4682945E-1],"split_indices":[0,54,51,78,43,27,86,1,87,27,28,2,15,69,87,0,0,0,0,0,0,0,0,0,0,0,0,0,0,0,0],"split_type":[0,0,0,0,0,0,0,0,0,0,0,0,0,0,0,0,0,0,0,0,0,0,0,0,0,0,0,0,0,0,0],"sum_hessian":[2.042E3,1.204E3,8.38E2,9.1E2,2.94E2,6.56E2,1.82E2,4.8E2,4.3E2,2.86E2,8E0,3.13E2,3.43E2,1.25E2,5.7E1,3.05E2,1.75E2,1.36E2,2.94E2,1.36E2,1.5E2,5E0,3E0,2.57E2,5.6E1,1.6E1,3.27E2,9.1E1,3.4E1,4.7E1,1E1],"tree_param":{"num_deleted":"0","num_feature":"100","num_nodes":"31","size_leaf_vector":"1"}},{"base_weights":[1.742361E-2,-1.7158762E1,3.2150375E1,-2.9483376E1,-4.9738836E0,1.6603857E1,4.845549E1,-3.0838848E1,2.0725729E1,-2.0085672E1,1.9058769E0,6.8490353E0,4.0466167E1,4.0769867E1,7.828617E1,-4.0973777E-1,-2.5236925E-1,5.0543725E-1,-8.183044E-2,-2.3226263E-1,1.09112486E-1,-6.1565194E-2,1.1610069E-1,-3.0596832E-2,2.4485372E-1,1.5685E-1,5.5856055E-1,8.865697E-1,3.7701565E-1,1.1852099E0,6.9605017E-1],"categories":[],"categories_nodes":[],"categories_segments":[],"categories_sizes":[],"default_left":[0,0,0,0,0,0,0,0,0,0,0,0,0,0,0,0,0,0,0,0,0,0,0,0,0,0,0,0,0,0,0],"id":24,"left_children":[1,3,5,7,9,11,13,15,17,19,21,23,25,27,29,-1,-1,-1,-1,-1,-1,-1,-1,-1,-1,-1,-1,-1,-1,-1,-1],"loss_changes":[1.1281274E6,1.9988494E5,1.7967862E5,4.5692938E4,6.979912E4,8.491762E4,7.6364125E4,3.5585938E4,1.5929635E4,2.069664E4,3.6217918E4,4.568558E4,3.955014E4,3.7504594E4,1.620025E4,0E0,0E0,0E0,0E0,0E0,0E0,0E0,0E0,0E0,0E0,0E0,0E0,0E0,0E0,0E0,0E0],"parents":[2147483647,0,0,1,1,2,2,3,3,4,4,5,5,6,6,7,7,8,8,9,9,10,10,11,11,12,12,13,13,14,14],"right_children":[2,4,6,8,10,12,14,16,18,20,22,24,26,28,30,-1,-1,-1,-1,-1,-1,-1,-1,-1,-1,-1,-1,-1,-1,-1,-1],"split_conditions":[4.468E1,4.9E-1,1.893E1,1.718E1,1.3E1,5.9E-1,8.67E1,4.38E-1,5.482E0,5.8E-1,5.4E-1,5.673E1,5.75E-1,5.917E1,4.34E-1,-4.0973777E-1,-2.5236925E-1,5.0543725E-1,-8.183044E-2,-2.3226263E-1,1.09112486E-1,-6.1565194E-2,1.1610069E-1,-3.0596832E-2,2.4485372E-1,1.5685E-1,5.5856055E-1,8.865697E-1,3.7701565E-1,1.1852099E0,6.9605017E-1],"split_indices":[0,2,42,13,26,2,0,87,76,3,2,0,52,10,53,0,0,0,0,0,0,0,0,0,0,0,0,0,0,0,0],"split_type":[0,0,0,0,0,0,0,0,0,0,0,0,0,0,0,0,0,0,0,0,0,0,0,0,0,0,0,0,0,0,0],"sum_hessian":[2.042E3,1.331E3,7.11E2,6.61E2,6.7E2,3.65E2,3.46E2,6.44E2,1.7E1,2.09E2,4.61E2,2.6E2,1.05E2,2.77E2,6.9E1,2.27E2,4.17E2,8E0,9E0,1.9E2,1.9E1,2.52E2,2.09E2,1.67E2,9.3E1,4.1E1,6.4E1,1.5E1,2.62E2,1E1,5.9E1],"tree_param":{"num_deleted":"0","num_feature":"100","num_nodes":"31","size_leaf_vector":"1"}},{"base_weights":[1.9094594E-2,-1.9394854E1,2.7902039E1,-2.583257E1,5.51428E-1,1.2252547E1,4.4325092E1,-3.3022156E1,-1.7748987E1,2.4441817E0,-5.9867657E1,-5.077236E0,2.1148075E1,4.0369427E1,1.0104241E2,-1.0310646E-1,-3.6609262E-1,-2.0796636E-1,5.3667687E-2,-8.306088E-2,1.17824405E-1,-1.7925659E-1,-1.0781373E0,-1.2139704E-1,2.2871049E-1,1.1307463E-1,3.624735E-1,1.880889E-1,4.6435767E-1,1.2487719E0,4.214592E-1],"categories":[],"categories_nodes":[],"categories_segments":[],"categories_sizes":[],"default_left":[0,0,0,0,0,0,0,0,0,0,0,0,0,0,0,0,0,0,0,0,0,0,0,0,0,0,0,0,0,0,0],"id":25,"left_children":[1,3,5,7,9,11,13,15,17,19,21,23,25,27,29,-1,-1,-1,-1,-1,-1,-1,-1,-1,-1,-1,-1,-1,-1,-1,-1],"loss_changes":[1.106454E6,1.547464E5,2.1509025E5,5.2359062E4,3.388207E4,6.654929E4,8.7682125E4,3.8808938E4,3.0475E4,2.8909455E4,1.6165957E4,2.9293078E4,4.1937156E4,4.9351312E4,3.1235312E4,0E0,0E0,0E0,0E0,0E0,0E0,0E0,0E0,0E0,0E0,0E0,0E0,0E0,0E0,0E0,0E0],"parents":[2147483647,0,0,1,1,2,2,3,3,4,4,5,5,6,6,7,7,8,8,9,9,10,10,11,11,12,12,13,13,14,14],"right_children":[2,4,6,8,10,12,14,16,18,20,22,24,26,28,30,-1,-1,-1,-1,-1,-1,-1,-1,-1,-1,-1,-1,-1,-1,-1,-1],"split_conditions":[3.978E1,5.2666664E-1,5.753E1,1.6E0,3.38E2,3.96E0,1.3333333E1,4.9E1,5.4E-1,1.32E0,4.76E0,4.5E1,5.7E-1,1.85E0,8.332E0,-1.0310646E-1,-3.6609262E-1,-2.0796636E-1,5.3667687E-2,-8.306088E-2,1.17824405E-1,-1.7925659E-1,-1.0781373E0,-1.2139704E-1,2.2871049E-1,1.1307463E-1,3.624735E-1,1.880889E-1,4.6435767E-1,1.2487719E0,4.214592E-1],"split_indices":[0,54,0,78,43,30,78,46,1,38,28,66,2,39,59,0,0,0,0,0,0,0,0,0,0,0,0,0,0,0,0],"split_type":[0,0,0,0,0,0,0,0,0,0,0,0,0,0,0,0,0,0,0,0,0,0,0,0,0,0,0,0,0,0,0],"sum_hessian":[2.042E3,1.204E3,8.38E2,9.1E2,2.94E2,4.3E2,4.08E2,4.8E2,4.3E2,2.86E2,8E0,1.46E2,2.84E2,3.83E2,2.5E1,6.6E1,4.14E2,3.8E2,5E1,1.33E2,1.53E2,5E0,3E0,1.17E2,2.9E1,1.73E2,1.11E2,8.5E1,2.98E2,1.7E1,8E0],"tree_param":{"num_deleted":"0","num_feature":"100","num_nodes":"31","size_leaf_vector":"1"}},{"base_weights":[1.9417066E-2,-1.9202442E1,2.7626472E1,-2.9719536E1,-7.196809E0,1.9193102E1,5.7752697E1,-4.029514E1,-2.3837711E1,-1.06124325E1,2.2218487E1,5.9028163E0,3.1268555E1,4.4017754E1,8.659494E1,-4.8673442E-1,-2.868439E-1,-3.0061913E-1,-8.465996E-2,-2.0759562E-1,-2.013355E-2,2.983212E-1,-6.597517E-1,-2.300034E-3,3.3558333E-1,-2.2893752E-1,3.3980417E-1,3.8048652E-1,8.565253E-1,9.922374E-1,2.3615178E-1],"categories":[],"categories_nodes":[],"categories_segments":[],"categories_sizes":[],"default_left":[0,0,0,0,0,0,0,0,0,0,0,0,0,0,0,0,0,0,0,0,0,0,0,0,0,0,0,0,0,0,0],"id":26,"left_children":[1,3,5,7,9,11,13,15,17,19,21,23,25,27,29,-1,-1,-1,-1,-1,-1,-1,-1,-1,-1,-1,-1,-1,-1,-1,-1],"loss_changes":[1.0846666E6,1.5193472E5,2.1205262E5,3.8974312E4,5.6901766E4,1.0525489E5,6.8683125E4,2.0783312E4,3.945133E4,4.410972E4,4.158515E4,5.3264098E4,5.1304906E4,2.8054844E4,4.3787625E4,0E0,0E0,0E0,0E0,0E0,0E0,0E0,0E0,0E0,0E0,0E0,0E0,0E0,0E0,0E0,0E0],"parents":[2147483647,0,0,1,1,2,2,3,3,4,4,5,5,6,6,7,7,8,8,9,9,10,10,11,11,12,12,13,13,14,14],"right_children":[2,4,6,8,10,12,14,16,18,20,22,24,26,28,30,-1,-1,-1,-1,-1,-1,-1,-1,-1,-1,-1,-1,-1,-1,-1,-1],"split_conditions":[3.978E1,4.9E-1,6.4176E1,4.38E-1,5.8E-1,1.7E1,6.0333335E-1,4.5666668E-1,9E0,1.32E0,1.121E1,5.9E-1,1.25E2,1.12E2,6.333333E-1,-4.8673442E-1,-2.868439E-1,-3.0061913E-1,-8.465996E-2,-2.0759562E-1,-2.013355E-2,2.983212E-1,-6.597517E-1,-2.300034E-3,3.3558333E-1,-2.2893752E-1,3.3980417E-1,3.8048652E-1,8.565253E-1,9.922374E-1,2.3615178E-1],"split_indices":[0,2,51,87,2,27,86,55,27,37,50,2,15,10,87,0,0,0,0,0,0,0,0,0,0,0,0,0,0,0,0],"split_type":[0,0,0,0,0,0,0,0,0,0,0,0,0,0,0,0,0,0,0,0,0,0,0,0,0,0,0,0,0,0,0],"sum_hessian":[2.042E3,1.204E3,8.38E2,6.41E2,5.63E2,6.56E2,1.82E2,2.27E2,4.14E2,5.05E2,5.8E1,3.13E2,3.43E2,1.25E2,5.7E1,1.3E2,9.7E1,2.94E2,1.2E2,2.31E2,2.74E2,5.4E1,4E0,2.57E2,5.6E1,1.6E1,3.27E2,1.11E2,1.4E1,4.7E1,1E1],"tree_param":{"num_deleted":"0","num_feature":"100","num_nodes":"31","size_leaf_vector":"1"}},{"base_weights":[1.9795138E-2,-1.6658508E1,3.1221312E1,-2.86473E1,-4.805692E0,1.6052662E1,4.7130547E1,-2.9977257E1,2.0600943E1,-1.9591766E1,1.9256531E0,-4.5023245E-1,2.9602053E1,3.9585335E1,7.642252E1,-3.9895555E-1,-2.4495557E-1,5.01682E-1,-8.0696836E-2,-1.4633107E-3,-2.4452254E-1,-5.9502658E-2,1.140509E-1,-5.226857E-1,3.5644148E-2,4.145214E-1,1.3274002E-1,5.019203E-1,2.6391605E-1,1.1617681E0,6.786053E-1],"categories":[],"categories_nodes":[],"categories_segments":[],"categories_sizes":[],"default_left":[0,0,0,0,0,0,0,0,0,0,0,0,0,0,0,0,0,0,0,0,0,0,0,0,0,0,0,0,0,0,0],"id":27,"left_children":[1,3,5,7,9,11,13,15,17,19,21,23,25,27,29,-1,-1,-1,-1,-1,-1,-1,-1,-1,-1,-1,-1,-1,-1,-1,-1],"loss_changes":[1.0636735E6,1.8914078E5,1.7106444E5,4.397725E4,6.682247E4,8.185247E4,7.366669E4,3.4090812E4,1.5663651E4,1.984443E4,3.4560453E4,3.4719684E4,3.8341016E4,3.757922E4,1.5942531E4,0E0,0E0,0E0,0E0,0E0,0E0,0E0,0E0,0E0,0E0,0E0,0E0,0E0,0E0,0E0,0E0],"parents":[2147483647,0,0,1,1,2,2,3,3,4,4,5,5,6,6,7,7,8,8,9,9,10,10,11,11,12,12,13,13,14,14],"right_children":[2,4,6,8,10,12,14,16,18,20,22,24,26,28,30,-1,-1,-1,-1,-1,-1,-1,-1,-1,-1,-1,-1,-1,-1,-1,-1],"split_conditions":[4.468E1,4.9E-1,1.893E1,1.718E1,1.3E1,5.45E-1,8.67E1,4.38E-1,5.482E0,9.662E0,5.4E-1,1.78E2,6.6E1,3.36E2,4.34E-1,-3.9895555E-1,-2.4495557E-1,5.01682E-1,-8.0696836E-2,-1.4633107E-3,-2.4452254E-1,-5.9502658E-2,1.140509E-1,-5.226857E-1,3.5644148E-2,4.145214E-1,1.3274002E-1,5.019203E-1,2.6391605E-1,1.1617681E0,6.786053E-1],"split_indices":[0,2,42,13,26,54,0,87,76,51,2,43,16,43,53,0,0,0,0,0,0,0,0,0,0,0,0,0,0,0,0],"split_type":[0,0,0,0,0,0,0,0,0,0,0,0,0,0,0,0,0,0,0,0,0,0,0,0,0,0,0,0,0,0,0],"sum_hessian":[2.042E3,1.331E3,7.11E2,6.61E2,6.7E2,3.65E2,3.46E2,6.44E2,1.7E1,2.09E2,4.61E2,1.65E2,2E2,2.77E2,6.9E1,2.27E2,4.17E2,8E0,9E0,4.2E1,1.67E2,2.52E2,2.09E2,1.1E1,1.54E2,1.15E2,8.5E1,1.52E2,1.25E2,1E1,5.9E1],"tree_param":{"num_deleted":"0","num_feature":"100","num_nodes":"31","size_leaf_vector":"1"}},{"base_weights":[2.0689454E-2,-1.8830282E1,2.7095064E1,-2.5105349E1,6.1180526E-1,1.8795382E1,5.674423E1,-3.3947636E1,-1.865601E1,2.490385E0,-5.936199E1,5.7338047E0,3.0663229E1,4.3174686E1,8.5244545E1,-1.0194972E-1,-4.0894544E-1,-2.2981544E-1,3.8927548E-2,-8.100036E-2,1.1689255E-1,-1.7765859E-1,-1.0691569E0,-3.06387E-3,3.2973024E-1,-2.2742663E-1,3.333773E-1,3.3430615E-1,6.7554104E-1,9.7727835E-1,2.3022465E-1],"categories":[],"categories_nodes":[],"categories_segments":[],"categories_sizes":[],"default_left":[0,0,0,0,0,0,0,0,0,0,0,0,0,0,0,0,0,0,0,0,0,0,0,0,0,0,0,0,0,0,0],"id":28,"left_children":[1,3,5,7,9,11,13,15,17,19,21,23,25,27,29,-1,-1,-1,-1,-1,-1,-1,-1,-1,-1,-1,-1,-1,-1,-1,-1],"loss_changes":[1.043213E6,1.4702584E5,2.0539344E5,5.1318188E4,3.338417E4,1.0166759E5,6.709231E4,6.2781062E4,5.168572E4,2.8054197E4,1.5903002E4,5.1672562E4,4.9893156E4,2.7673516E4,4.2800812E4,0E0,0E0,0E0,0E0,0E0,0E0,0E0,0E0,0E0,0E0,0E0,0E0,0E0,0E0,0E0,0E0],"parents":[2147483647,0,0,1,1,2,2,3,3,4,4,5,5,6,6,7,7,8,8,9,9,10,10,11,11,12,12,13,13,14,14],"right_children":[2,4,6,8,10,12,14,16,18,20,22,24,26,28,30,-1,-1,-1,-1,-1,-1,-1,-1,-1,-1,-1,-1,-1,-1,-1,-1],"split_conditions":[3.978E1,5.2666664E-1,6.4176E1,2.22E0,3.38E2,1.7E1,6.0333335E-1,4.9E1,5.3E-1,1.32E0,4.76E0,5.9E-1,1.25E2,9.25E0,6.333333E-1,-1.0194972E-1,-4.0894544E-1,-2.2981544E-1,3.8927548E-2,-8.100036E-2,1.1689255E-1,-1.7765859E-1,-1.0691569E0,-3.06387E-3,3.2973024E-1,-2.2742663E-1,3.333773E-1,3.3430615E-1,6.7554104E-1,9.7727835E-1,2.3022465E-1],"split_indices":[0,54,51,28,43,27,86,46,1,38,28,2,15,69,87,0,0,0,0,0,0,0,0,0,0,0,0,0,0,0,0],"split_type":[0,0,0,0,0,0,0,0,0,0,0,0,0,0,0,0,0,0,0,0,0,0,0,0,0,0,0,0,0,0,0],"sum_hessian":[2.042E3,1.204E3,8.38E2,9.1E2,2.94E2,6.56E2,1.82E2,3.82E2,5.28E2,2.86E2,8E0,3.13E2,3.43E2,1.25E2,5.7E1,8.7E1,2.95E2,4.43E2,8.5E1,1.33E2,1.53E2,5E0,3E0,2.57E2,5.6E1,1.6E1,3.27E2,9.1E1,3.4E1,4.7E1,1E1],"tree_param":{"num_deleted":"0","num_feature":"100","num_nodes":"31","size_leaf_vector":"1"}},{"base_weights":[2.0836858E-2,-1.6333456E1,3.0616196E1,-2.810021E1,-4.700183E0,2.2925793E1,6.1056156E1,-2.941228E1,2.0476725E1,-1.9263151E1,1.9295219E0,7.229556E0,3.415614E1,4.593064E1,8.6642525E1,-3.9217296E-1,-2.3993725E-1,4.9797004E-1,-7.9591975E-2,-2.2318979E-1,1.0883158E-1,-4.6435636E-1,3.4332696E-2,-1.745191E-2,2.982407E-1,-3.5708153E-1,3.5770777E-1,3.271332E-1,7.215599E-1,1.1883366E0,6.100228E-1],"categories":[],"categories_nodes":[],"categories_segments":[],"categories_sizes":[],"default_left":[0,0,0,0,0,0,0,0,0,0,0,0,0,0,0,0,0,0,0,0,0,0,0,0,0,0,0,0,0,0,0],"id":29,"left_children":[1,3,5,7,9,11,13,15,17,19,21,23,25,27,29,-1,-1,-1,-1,-1,-1,-1,-1,-1,-1,-1,-1,-1,-1,-1,-1],"loss_changes":[1.0227467E6,1.8219988E5,1.6527631E5,4.279572E4,6.4821004E4,1.0022934E5,5.1362438E4,3.3327188E4,1.5403828E4,1.95885E4,3.3760227E4,4.8516477E4,3.872875E4,2.9529375E4,3.5671094E4,0E0,0E0,0E0,0E0,0E0,0E0,0E0,0E0,0E0,0E0,0E0,0E0,0E0,0E0,0E0,0E0],"parents":[2147483647,0,0,1,1,2,2,3,3,4,4,5,5,6,6,7,7,8,8,9,9,10,10,11,11,12,12,13,13,14,14],"right_children":[2,4,6,8,10,12,14,16,18,20,22,24,26,28,30,-1,-1,-1,-1,-1,-1,-1,-1,-1,-1,-1,-1,-1,-1,-1,-1],"split_conditions":[4.468E1,4.9E-1,6.6734E1,1.718E1,1.3E1,1.7E1,6.0333335E-1,4.38E-1,5.482E0,5.8E-1,4.6E-1,5.8E-1,1.78E2,8.761E1,6.08E-1,-3.9217296E-1,-2.3993725E-1,4.9797004E-1,-7.9591975E-2,-2.2318979E-1,1.0883158E-1,-4.6435636E-1,3.4332696E-2,-1.745191E-2,2.982407E-1,-3.5708153E-1,3.5770777E-1,3.271332E-1,7.215599E-1,1.1883366E0,6.100228E-1],"split_indices":[0,2,51,13,26,27,86,87,76,3,55,3,43,0,87,0,0,0,0,0,0,0,0,0,0,0,0,0,0,0,0],"split_type":[0,0,0,0,0,0,0,0,0,0,0,0,0,0,0,0,0,0,0,0,0,0,0,0,0,0,0,0,0,0,0],"sum_hessian":[2.042E3,1.331E3,7.11E2,6.61E2,6.7E2,5.69E2,1.42E2,6.44E2,1.7E1,2.09E2,4.61E2,2.38E2,3.31E2,9.1E1,5.1E1,2.27E2,4.17E2,8E0,9E0,1.9E2,1.9E1,1.3E1,4.48E2,1.71E2,6.7E1,7E0,3.24E2,6.2E1,2.9E1,2.1E1,3E1],"tree_param":{"num_deleted":"0","num_feature":"100","num_nodes":"31","size_leaf_vector":"1"}},{"base_weights":[2.1776466E-2,-1.8465513E1,2.6573816E1,-2.4630419E1,6.3514674E-1,1.1533019E1,4.235868E1,-3.3353706E1,-1.8268133E1,2.5001664E0,-5.890883E1,-4.3968725E0,2.0676777E1,3.852343E1,9.737324E1,-9.8498926E-2,-4.022864E-1,-2.2523202E-1,3.9123263E-2,-1.8996205E-2,2.4447013E-1,-1.7603506E-1,-1.061396E0,-1.10274926E-1,2.547821E-1,2.9358444E-1,4.532309E-2,1.7806408E-1,4.435333E-1,1.2096268E0,3.9375114E-1],"categories":[],"categories_nodes":[],"categories_segments":[],"categories_sizes":[],"default_left":[0,0,0,0,0,0,0,0,0,0,0,0,0,0,0,0,0,0,0,0,0,0,0,0,0,0,0,0,0,0,0],"id":30,"left_children":[1,3,5,7,9,11,13,15,17,19,21,23,25,27,29,-1,-1,-1,-1,-1,-1,-1,-1,-1,-1,-1,-1,-1,-1,-1,-1],"loss_changes":[1.0033488E6,1.4190894E5,1.9870438E5,4.995125E4,3.290723E4,6.2869977E4,8.2545625E4,6.1491625E4,5.001483E4,2.7759576E4,1.5689512E4,3.1579229E4,3.8271023E4,4.5589062E4,3.0808797E4,0E0,0E0,0E0,0E0,0E0,0E0,0E0,0E0,0E0,0E0,0E0,0E0,0E0,0E0,0E0,0E0],"parents":[2147483647,0,0,1,1,2,2,3,3,4,4,5,5,6,6,7,7,8,8,9,9,10,10,11,11,12,12,13,13,14,14],"right_children":[2,4,6,8,10,12,14,16,18,20,22,24,26,28,30,-1,-1,-1,-1,-1,-1,-1,-1,-1,-1,-1,-1,-1,-1,-1,-1],"split_conditions":[3.978E1,5.2666664E-1,5.753E1,2.22E0,3.38E2,1.44E0,1.3333333E1,4.9E1,5.3E-1,5.8E-1,4.76E0,5.7E1,2.5E1,1.85E0,8.332E0,-9.8498926E-2,-4.022864E-1,-2.2523202E-1,3.9123263E-2,-1.8996205E-2,2.4447013E-1,-1.7603506E-1,-1.061396E0,-1.10274926E-1,2.547821E-1,2.9358444E-1,4.532309E-2,1.7806408E-1,4.435333E-1,1.2096268E0,3.9375114E-1],"split_indices":[0,54,0,28,43,99,78,46,1,3,28,26,48,39,59,0,0,0,0,0,0,0,0,0,0,0,0,0,0,0,0],"split_type":[0,0,0,0,0,0,0,0,0,0,0,0,0,0,0,0,0,0,0,0,0,0,0,0,0,0,0,0,0,0,0],"sum_hessian":[2.042E3,1.204E3,8.38E2,9.1E2,2.94E2,4.3E2,4.08E2,3.82E2,5.28E2,2.86E2,8E0,1.57E2,2.73E2,3.83E2,2.5E1,8.7E1,2.95E2,4.43E2,8.5E1,2.39E2,4.7E1,5E0,3E0,1.29E2,2.8E1,1.77E2,9.6E1,8.5E1,2.98E2,1.7E1,8E0],"tree_param":{"num_deleted":"0","num_feature":"100","num_nodes":"31","size_leaf_vector":"1"}},{"base_weights":[2.2049017E-2,-1.8282274E1,2.6311306E1,-2.4384874E1,6.253571E-1,1.8223616E1,5.5203663E1,-3.136708E1,-1.6536089E1,2.4759424E0,-5.8457233E1,5.533329E0,2.9754217E1,4.191551E1,8.311925E1,-9.3174845E-2,-3.485131E-1,-2.9346514E-1,-1.1383278E-1,-8.837626E-2,1.08946875E-1,-1.7456818E-1,-1.0534354E0,-3.7637232E-3,3.218543E-1,-2.2748685E-1,3.2384688E-1,3.6045972E-1,8.294701E-1,9.5410156E-1,2.1929902E-1],"categories":[],"categories_nodes":[],"categories_segments":[],"categories_sizes":[],"default_left":[0,0,0,0,0,0,0,0,0,0,0,0,0,0,0,0,0,0,0,0,0,0,0,0,0,0,0,0,0,0,0],"id":31,"left_children":[1,3,5,7,9,11,13,15,17,19,21,23,25,27,29,-1,-1,-1,-1,-1,-1,-1,-1,-1,-1,-1,-1,-1,-1,-1,-1],"loss_changes":[9.8358706E5,1.3905506E5,1.9504519E5,4.940575E4,3.2399264E4,9.597197E4,6.439925E4,3.66285E4,2.8116125E4,2.74319E4,1.546226E4,4.9468977E4,4.8245656E4,2.7355406E4,4.1527906E4,0E0,0E0,0E0,0E0,0E0,0E0,0E0,0E0,0E0,0E0,0E0,0E0,0E0,0E0,0E0,0E0],"parents":[2147483647,0,0,1,1,2,2,3,3,4,4,5,5,6,6,7,7,8,8,9,9,10,10,11,11,12,12,13,13,14,14],"right_children":[2,4,6,8,10,12,14,16,18,20,22,24,26,28,30,-1,-1,-1,-1,-1,-1,-1,-1,-1,-1,-1,-1,-1,-1,-1,-1],"split_conditions":[3.978E1,5.2666664E-1,6.4176E1,1.6E0,3.38E2,1.7E1,6.0333335E-1,4.9E1,4.25E-1,5.4E-1,4.76E0,5.9E-1,1.25E2,1.12E2,6.333333E-1,-9.3174845E-2,-3.485131E-1,-2.9346514E-1,-1.1383278E-1,-8.837626E-2,1.08946875E-1,-1.7456818E-1,-1.0534354E0,-3.7637232E-3,3.218543E-1,-2.2748685E-1,3.2384688E-1,3.6045972E-1,8.294701E-1,9.5410156E-1,2.1929902E-1],"split_indices":[0,54,51,78,43,27,86,46,86,2,28,2,15,10,87,0,0,0,0,0,0,0,0,0,0,0,0,0,0,0,0],"split_type":[0,0,0,0,0,0,0,0,0,0,0,0,0,0,0,0,0,0,0,0,0,0,0,0,0,0,0,0,0,0,0],"sum_hessian":[2.042E3,1.204E3,8.38E2,9.1E2,2.94E2,6.56E2,1.82E2,4.8E2,4.3E2,2.86E2,8E0,3.13E2,3.43E2,1.25E2,5.7E1,6.6E1,4.14E2,1.22E2,3.08E2,1.22E2,1.64E2,5E0,3E0,2.57E2,5.6E1,1.6E1,3.27E2,1.11E2,1.4E1,4.7E1,1E1],"tree_param":{"num_deleted":"0","num_feature":"100","num_nodes":"31","size_leaf_vector":"1"}},{"base_weights":[2.218247E-2,-1.5860569E1,2.973539E1,-2.7323103E1,-4.528143E0,1.5176724E1,4.500552E1,-2.861038E1,2.032227E1,-1.881453E1,1.97547E0,-8.7908787E-1,2.8361242E1,3.7691044E1,7.341151E1,-3.8255778E-1,-2.3280807E-1,4.9383962E-1,-7.865485E-2,3.0315027E-3,-2.3595752E-1,-4.563218E-1,3.455496E-2,-5.176349E-1,3.0660214E-2,4.0019995E-1,1.2305703E-1,8.537189E-1,3.4646994E-1,5.09859E-1,8.630699E-1],"categories":[],"categories_nodes":[],"categories_segments":[],"categories_sizes":[],"default_left":[0,0,0,0,0,0,0,0,0,0,0,0,0,0,0,0,0,0,0,0,0,0,0,0,0,0,0,0,0,0,0],"id":32,"left_children":[1,3,5,7,9,11,13,15,17,19,21,23,25,27,29,-1,-1,-1,-1,-1,-1,-1,-1,-1,-1,-1,-1,-1,-1,-1,-1],"loss_changes":[9.646195E5,1.7290088E5,1.5760362E5,4.1183688E4,6.238187E4,7.750279E4,6.933094E4,3.2266125E4,1.513374E4,1.9202398E4,3.2710463E4,3.34823E4,3.713225E4,3.7391844E4,1.584275E4,0E0,0E0,0E0,0E0,0E0,0E0,0E0,0E0,0E0,0E0,0E0,0E0,0E0,0E0,0E0,0E0],"parents":[2147483647,0,0,1,1,2,2,3,3,4,4,5,5,6,6,7,7,8,8,9,9,10,10,11,11,12,12,13,13,14,14],"right_children":[2,4,6,8,10,12,14,16,18,20,22,24,26,28,30,-1,-1,-1,-1,-1,-1,-1,-1,-1,-1,-1,-1,-1,-1,-1,-1],"split_conditions":[4.468E1,4.9E-1,1.893E1,1.718E1,1.3E1,5.45E-1,8.67E1,4.38E-1,5.482E0,9.662E0,4.6E-1,1.78E2,6.6E1,5.917E1,4.5E1,-3.8255778E-1,-2.3280807E-1,4.9383962E-1,-7.865485E-2,3.0315027E-3,-2.3595752E-1,-4.563218E-1,3.455496E-2,-5.176349E-1,3.0660214E-2,4.0019995E-1,1.2305703E-1,8.537189E-1,3.4646994E-1,5.09859E-1,8.630699E-1],"split_indices":[0,2,42,13,26,54,0,87,76,51,55,43,16,10,49,0,0,0,0,0,0,0,0,0,0,0,0,0,0,0,0],"split_type":[0,0,0,0,0,0,0,0,0,0,0,0,0,0,0,0,0,0,0,0,0,0,0,0,0,0,0,0,0,0,0],"sum_hessian":[2.042E3,1.331E3,7.11E2,6.61E2,6.7E2,3.65E2,3.46E2,6.44E2,1.7E1,2.09E2,4.61E2,1.65E2,2E2,2.77E2,6.9E1,2.27E2,4.17E2,8E0,9E0,4.2E1,1.67E2,1.3E1,4.48E2,1.1E1,1.54E2,1.15E2,8.5E1,1.5E1,2.62E2,2.7E1,4.2E1],"tree_param":{"num_deleted":"0","num_feature":"100","num_nodes":"31","size_leaf_vector":"1"}},{"base_weights":[2.2815766E-2,-1.7928743E1,2.580542E1,-2.3925972E1,6.5229034E-1,1.1126498E1,4.1210827E1,-3.2526737E1,-1.7653727E1,2.4895945E0,-5.8009773E1,-7.7773743E0,1.8530195E1,3.744531E1,9.523958E1,-9.423695E-2,-3.928532E-1,-2.183368E-1,4.131781E-2,-7.933062E-2,1.1542494E-1,-1.7295054E-1,-1.045794E0,-1.522029E-1,2.874429E-1,6.035117E-1,1.5125984E-1,3.2214683E-1,6.044819E-1,1.1862646E0,3.788363E-1],"categories":[],"categories_nodes":[],"categories_segments":[],"categories_sizes":[],"default_left":[0,0,0,0,0,0,0,0,0,0,0,0,0,0,0,0,0,0,0,0,0,0,0,0,0,0,0,0,0,0,0],"id":33,"left_children":[1,3,5,7,9,11,13,15,17,19,21,23,25,27,29,-1,-1,-1,-1,-1,-1,-1,-1,-1,-1,-1,-1,-1,-1,-1,-1],"loss_changes":[9.4604056E5,1.342945E5,1.8926856E5,4.8570688E4,3.1939537E4,6.0466242E4,7.964325E4,5.9432906E4,4.8262234E4,2.717153E4,1.525592E4,3.3600477E4,4.3221016E4,4.4255312E4,3.0381797E4,0E0,0E0,0E0,0E0,0E0,0E0,0E0,0E0,0E0,0E0,0E0,0E0,0E0,0E0,0E0,0E0],"parents":[2147483647,0,0,1,1,2,2,3,3,4,4,5,5,6,6,7,7,8,8,9,9,10,10,11,11,12,12,13,13,14,14],"right_children":[2,4,6,8,10,12,14,16,18,20,22,24,26,28,30,-1,-1,-1,-1,-1,-1,-1,-1,-1,-1,-1,-1,-1,-1,-1,-1],"split_conditions":[3.978E1,5.2666664E-1,5.753E1,2.22E0,3.38E2,1.24E0,1.3333333E1,4.9E1,5.3E-1,1.32E0,4.76E0,5.7E1,9.6E1,6.0333335E-1,8.332E0,-9.423695E-2,-3.928532E-1,-2.183368E-1,4.131781E-2,-7.933062E-2,1.1542494E-1,-1.7295054E-1,-1.045794E0,-1.522029E-1,2.874429E-1,6.035117E-1,1.5125984E-1,3.2214683E-1,6.044819E-1,1.1862646E0,3.788363E-1],"split_indices":[0,54,0,28,43,99,78,46,1,38,28,26,24,86,59,0,0,0,0,0,0,0,0,0,0,0,0,0,0,0,0],"split_type":[0,0,0,0,0,0,0,0,0,0,0,0,0,0,0,0,0,0,0,0,0,0,0,0,0,0,0,0,0,0,0],"sum_hessian":[2.042E3,1.204E3,8.38E2,9.1E2,2.94E2,4.3E2,4.08E2,3.82E2,5.28E2,2.86E2,8E0,1.21E2,3.09E2,3.83E2,2.5E1,8.7E1,2.95E2,4.43E2,8.5E1,1.33E2,1.53E2,5E0,3E0,1.01E2,2E1,2.2E1,2.87E2,3.14E2,6.9E1,1.7E1,8E0],"tree_param":{"num_deleted":"0","num_feature":"100","num_nodes":"31","size_leaf_vector":"1"}},{"base_weights":[2.3344977E-2,-1.7750984E1,2.5551405E1,-2.3687439E1,6.4176935E-1,1.7653051E1,5.376816E1,-3.0550411E1,-1.5973338E1,2.4648352E0,-5.7565083E1,5.2391872E0,2.8932995E1,4.0717793E1,8.119193E1,-3.7085357E-1,-1.9014938E-1,-2.7575642E-1,-1.0531003E-1,-1.873073E-2,2.4103025E-1,-1.7150909E-1,-1.0379508E0,-5.550419E-3,3.137378E-1,-2.274395E-1,3.1523162E-1,4.896249E-1,1.3872348E-1,9.333795E-1,2.0810053E-1],"categories":[],"categories_nodes":[],"categories_segments":[],"categories_sizes":[],"default_left":[0,0,0,0,0,0,0,0,0,0,0,0,0,0,0,0,0,0,0,0,0,0,0,0,0,0,0,0,0,0,0],"id":34,"left_children":[1,3,5,7,9,11,13,15,17,19,21,23,25,27,29,-1,-1,-1,-1,-1,-1,-1,-1,-1,-1,-1,-1,-1,-1,-1,-1],"loss_changes":[9.274528E5,1.3158647E5,1.8603531E5,4.7741906E4,3.1445791E4,9.184659E4,6.2188E4,3.5554344E4,2.6924516E4,2.6984258E4,1.5034945E4,4.756639E4,4.676203E4,2.7208688E4,4.0594812E4,0E0,0E0,0E0,0E0,0E0,0E0,0E0,0E0,0E0,0E0,0E0,0E0,0E0,0E0,0E0,0E0],"parents":[2147483647,0,0,1,1,2,2,3,3,4,4,5,5,6,6,7,7,8,8,9,9,10,10,11,11,12,12,13,13,14,14],"right_children":[2,4,6,8,10,12,14,16,18,20,22,24,26,28,30,-1,-1,-1,-1,-1,-1,-1,-1,-1,-1,-1,-1,-1,-1,-1,-1],"split_conditions":[3.978E1,5.2666664E-1,6.4176E1,1.6E0,3.38E2,1.7E1,6.0333335E-1,4.9E-1,4.38E-1,5.8E-1,4.76E0,5.9E-1,1.25E2,1.992E1,6.333333E-1,-3.7085357E-1,-1.9014938E-1,-2.7575642E-1,-1.0531003E-1,-1.873073E-2,2.4103025E-1,-1.7150909E-1,-1.0379508E0,-5.550419E-3,3.137378E-1,-2.274395E-1,3.1523162E-1,4.896249E-1,1.3872348E-1,9.333795E-1,2.0810053E-1],"split_indices":[0,54,51,78,43,27,86,1,87,3,28,2,15,50,87,0,0,0,0,0,0,0,0,0,0,0,0,0,0,0,0],"split_type":[0,0,0,0,0,0,0,0,0,0,0,0,0,0,0,0,0,0,0,0,0,0,0,0,0,0,0,0,0,0,0],"sum_hessian":[2.042E3,1.204E3,8.38E2,9.1E2,2.94E2,6.56E2,1.82E2,4.8E2,4.3E2,2.86E2,8E0,3.13E2,3.43E2,1.25E2,5.7E1,3.05E2,1.75E2,1.36E2,2.94E2,2.39E2,4.7E1,5E0,3E0,2.57E2,5.6E1,1.6E1,3.27E2,9.5E1,3E1,4.7E1,1E1],"tree_param":{"num_deleted":"0","num_feature":"100","num_nodes":"31","size_leaf_vector":"1"}},{"base_weights":[2.3220845E-2,-1.5400022E1,2.8876781E1,-2.2058136E1,3.0567446E0,2.2538918E1,6.262838E1,-2.6071796E1,-7.1462235E0,-4.48575E1,6.060165E0,7.337722E0,3.3197723E1,3.163783E1,7.8114914E1,-3.705987E-1,-2.1185121E-1,-1.4821254E-1,8.641103E-2,-6.096829E-1,1.8890722E-1,5.0694996E-1,3.506577E-2,-3.3384617E-2,2.2503364E-1,-3.5501724E-1,3.4690204E-1,4.6908453E-1,-2.4476305E-1,2.3310627E-1,8.534457E-1],"categories":[],"categories_nodes":[],"categories_segments":[],"categories_sizes":[],"default_left":[0,0,0,0,0,0,0,0,0,0,0,0,0,0,0,0,0,0,0,0,0,0,0,0,0,0,0,0,0,0,0],"id":35,"left_children":[1,3,5,7,9,11,13,15,17,19,21,23,25,27,29,-1,-1,-1,-1,-1,-1,-1,-1,-1,-1,-1,-1,-1,-1,-1,-1],"loss_changes":[9.0961125E5,1.6375325E5,1.508945E5,5.8408156E4,5.121478E4,9.7134375E4,5.1281438E4,4.0613875E4,2.5452227E4,2.2719469E4,3.7891203E4,4.0391008E4,3.742553E4,3.4567168E4,2.7330562E4,0E0,0E0,0E0,0E0,0E0,0E0,0E0,0E0,0E0,0E0,0E0,0E0,0E0,0E0,0E0,0E0],"parents":[2147483647,0,0,1,1,2,2,3,3,4,4,5,5,6,6,7,7,8,8,9,9,10,10,11,11,12,12,13,13,14,14],"right_children":[2,4,6,8,10,12,14,16,18,20,22,24,26,28,30,-1,-1,-1,-1,-1,-1,-1,-1,-1,-1,-1,-1,-1,-1,-1,-1],"split_conditions":[4.468E1,5.3E-1,7.0216E1,1.061E1,4.9E-1,1.7E1,2.97E0,4.575E-1,5.622E1,1.13514E2,4.95E-1,5.7E-1,1.78E2,1.1225E0,5.6E-1,-3.705987E-1,-2.1185121E-1,-1.4821254E-1,8.641103E-2,-6.096829E-1,1.8890722E-1,5.0694996E-1,3.506577E-2,-3.3384617E-2,2.2503364E-1,-3.5501724E-1,3.4690204E-1,4.6908453E-1,-2.4476305E-1,2.3310627E-1,8.534457E-1],"split_indices":[0,3,51,42,54,27,89,55,10,56,52,2,43,97,3,0,0,0,0,0,0,0,0,0,0,0,0,0,0,0,0],"split_type":[0,0,0,0,0,0,0,0,0,0,0,0,0,0,0,0,0,0,0,0,0,0,0,0,0,0,0,0,0,0,0],"sum_hessian":[2.042E3,1.331E3,7.11E2,9.78E2,3.53E2,6E2,1.11E2,7.7E2,2.08E2,2E1,3.33E2,2.48E2,3.52E2,3.8E1,7.3E1,2.35E2,5.35E2,1.4E2,6.8E1,1.6E1,4E0,1.7E1,3.16E2,1.46E2,1.02E2,7E0,3.45E2,3E1,8E0,9E0,6.4E1],"tree_param":{"num_deleted":"0","num_feature":"100","num_nodes":"31","size_leaf_vector":"1"}},{"base_weights":[2.3455456E-2,-1.74054E1,2.5055336E1,-2.6216738E1,-5.4279113E0,1.0458712E1,3.98019E1,-3.4435463E1,-1.7508532E1,-8.727264E0,2.0548529E1,-8.86253E0,1.7962872E1,3.6169373E1,9.303838E1,7.811122E-4,-3.7611797E-1,-1.9203652E-1,3.0283853E-1,-1.5172543E-1,1.9656794E-2,2.8045937E-1,-6.453318E-1,3.365889E-1,-1.4852613E-1,5.9511644E-1,1.4522643E-1,1.6286056E-1,4.1704267E-1,1.1614922E0,3.647911E-1],"categories":[],"categories_nodes":[],"categories_segments":[],"categories_sizes":[],"default_left":[0,0,0,0,0,0,0,0,0,0,0,0,0,0,0,0,0,0,0,0,0,0,0,0,0,0,0,0,0,0,0],"id":36,"left_children":[1,3,5,7,9,11,13,15,17,19,21,23,25,27,29,-1,-1,-1,-1,-1,-1,-1,-1,-1,-1,-1,-1,-1,-1,-1,-1],"loss_changes":[8.917501E5,1.2703066E5,1.8017844E5,4.9066844E4,4.4060516E4,6.1489844E4,7.727556E4,3.9030062E4,2.8045297E4,3.1387973E4,3.880764E4,3.081004E4,4.27316E4,4.246128E4,2.9748422E4,0E0,0E0,0E0,0E0,0E0,0E0,0E0,0E0,0E0,0E0,0E0,0E0,0E0,0E0,0E0,0E0],"parents":[2147483647,0,0,1,1,2,2,3,3,4,4,5,5,6,6,7,7,8,8,9,9,10,10,11,11,12,12,13,13,14,14],"right_children":[2,4,6,8,10,12,14,16,18,20,22,24,26,28,30,-1,-1,-1,-1,-1,-1,-1,-1,-1,-1,-1,-1,-1,-1,-1,-1],"split_conditions":[3.978E1,5E-1,5.725E1,1.6E0,5.8E-1,1.24E0,1.3333333E1,1.94E0,2.37E0,9E0,1.121E1,3.61E0,9.6E1,1.85E0,8.332E0,7.811122E-4,-3.7611797E-1,-1.9203652E-1,3.0283853E-1,-1.5172543E-1,1.9656794E-2,2.8045937E-1,-6.453318E-1,3.365889E-1,-1.4852613E-1,5.9511644E-1,1.4522643E-1,1.6286056E-1,4.1704267E-1,1.1614922E0,3.647911E-1],"split_indices":[0,1,0,78,2,99,78,50,37,20,50,90,24,39,59,0,0,0,0,0,0,0,0,0,0,0,0,0,0,0,0],"split_type":[0,0,0,0,0,0,0,0,0,0,0,0,0,0,0,0,0,0,0,0,0,0,0,0,0,0,0,0,0,0,0],"sum_hessian":[2.042E3,1.204E3,8.38E2,6.93E2,5.11E2,4.22E2,4.16E2,3.55E2,3.38E2,4.54E2,5.7E1,1.18E2,3.04E2,3.91E2,2.5E1,3E1,3.25E2,3.27E2,1.1E1,2.83E2,1.71E2,5.3E1,4E0,1.4E1,1.04E2,2.2E1,2.82E2,8.6E1,3.05E2,1.7E1,8E0],"tree_param":{"num_deleted":"0","num_feature":"100","num_nodes":"31","size_leaf_vector":"1"}},{"base_weights":[2.4329545E-2,-1.509765E1,2.8314291E1,-2.607114E1,-4.248845E0,2.2074322E1,6.1545605E1,-3.6751007E1,-2.0413483E1,-1.8148882E1,2.07855E0,7.1234517E0,3.255787E1,3.0961426E1,7.6832596E1,-4.530144E-1,-2.593444E-1,-2.6505744E-1,-6.5308236E-2,6.840025E-3,-2.2861174E-1,-4.4478667E-1,3.5255935E-2,-3.3846043E-2,2.2051226E-1,-3.538549E-1,3.4034714E-1,4.6075672E-1,-2.453892E-1,2.2729076E-1,8.397417E-1],"categories":[],"categories_nodes":[],"categories_segments":[],"categories_sizes":[],"default_left":[0,0,0,0,0,0,0,0,0,0,0,0,0,0,0,0,0,0,0,0,0,0,0,0,0,0,0,0,0,0,0],"id":37,"left_children":[1,3,5,7,9,11,13,15,17,19,21,23,25,27,29,-1,-1,-1,-1,-1,-1,-1,-1,-1,-1,-1,-1,-1,-1,-1,-1],"loss_changes":[8.744233E5,1.5846284E5,1.4628344E5,3.924978E4,5.905285E4,9.396772E4,4.9985625E4,1.9912031E4,3.6617797E4,1.8652312E4,3.1281898E4,3.9133242E4,3.662503E4,3.3845645E4,2.6683812E4,0E0,0E0,0E0,0E0,0E0,0E0,0E0,0E0,0E0,0E0,0E0,0E0,0E0,0E0,0E0,0E0],"parents":[2147483647,0,0,1,1,2,2,3,3,4,4,5,5,6,6,7,7,8,8,9,9,10,10,11,11,12,12,13,13,14,14],"right_children":[2,4,6,8,10,12,14,16,18,20,22,24,26,28,30,-1,-1,-1,-1,-1,-1,-1,-1,-1,-1,-1,-1,-1,-1,-1,-1],"split_conditions":[4.468E1,4.9E-1,7.0216E1,4.38E-1,1.3E1,1.7E1,2.97E0,4.55E-1,9E0,9.662E0,4.6E-1,5.7E-1,1.78E2,1.1225E0,5.6E-1,-4.530144E-1,-2.593444E-1,-2.6505744E-1,-6.5308236E-2,6.840025E-3,-2.2861174E-1,-4.4478667E-1,3.5255935E-2,-3.3846043E-2,2.2051226E-1,-3.538549E-1,3.4034714E-1,4.6075672E-1,-2.453892E-1,2.2729076E-1,8.397417E-1],"split_indices":[0,2,51,87,26,27,89,55,27,51,55,2,43,97,3,0,0,0,0,0,0,0,0,0,0,0,0,0,0,0,0],"split_type":[0,0,0,0,0,0,0,0,0,0,0,0,0,0,0,0,0,0,0,0,0,0,0,0,0,0,0,0,0,0,0],"sum_hessian":[2.042E3,1.331E3,7.11E2,6.61E2,6.7E2,6E2,1.11E2,2.27E2,4.34E2,2.09E2,4.61E2,2.48E2,3.52E2,3.8E1,7.3E1,1.25E2,1.02E2,3.01E2,1.33E2,4.2E1,1.67E2,1.3E1,4.48E2,1.46E2,1.02E2,7E0,3.45E2,3E1,8E0,9E0,6.4E1],"tree_param":{"num_deleted":"0","num_feature":"100","num_nodes":"31","size_leaf_vector":"1"}},{"base_weights":[2.3982933E-2,-1.7069105E1,2.4573622E1,-2.2817135E1,7.3944813E-1,1.7262928E1,5.3241814E1,-3.1176249E1,-1.6721941E1,2.5489748E0,-5.704651E1,-1.8366549E0,2.4606644E1,4.6314922E1,8.982478E1,-8.471937E-2,-3.7820855E-1,-2.0779346E-1,4.4200353E-2,-7.7043004E-2,1.1454104E-1,-1.6949289E-1,-1.0293071E0,-1.723562E-1,1.2939818E-1,1.4902544E-1,3.4996456E-1,5.820019E-1,2.1841739E-1,-7.001495E-3,1.0166281E0],"categories":[],"categories_nodes":[],"categories_segments":[],"categories_sizes":[],"default_left":[0,0,0,0,0,0,0,0,0,0,0,0,0,0,0,0,0,0,0,0,0,0,0,0,0,0,0,0,0,0,0],"id":38,"left_children":[1,3,5,7,9,11,13,15,17,19,21,23,25,27,29,-1,-1,-1,-1,-1,-1,-1,-1,-1,-1,-1,-1,-1,-1,-1,-1],"loss_changes":[8.577218E5,1.2336559E5,1.7492219E5,4.589453E4,3.0992152E4,9.402067E4,3.891878E4,5.7459406E4,4.5470297E4,2.6293285E4,1.4813861E4,4.2773453E4,4.8277188E4,4.090503E4,2.793375E4,0E0,0E0,0E0,0E0,0E0,0E0,0E0,0E0,0E0,0E0,0E0,0E0,0E0,0E0,0E0,0E0],"parents":[2147483647,0,0,1,1,2,2,3,3,4,4,5,5,6,6,7,7,8,8,9,9,10,10,11,11,12,12,13,13,14,14],"right_children":[2,4,6,8,10,12,14,16,18,20,22,24,26,28,30,-1,-1,-1,-1,-1,-1,-1,-1,-1,-1,-1,-1,-1,-1,-1,-1],"split_conditions":[3.978E1,5.2666664E-1,7.399E1,2.22E0,3.38E2,3.92E0,9.923E1,4.9E1,5.3E-1,1.32E0,4.76E0,4.75E0,5.7E-1,1.928E1,4.1666666E-1,-8.471937E-2,-3.7820855E-1,-2.0779346E-1,4.4200353E-2,-7.7043004E-2,1.1454104E-1,-1.6949289E-1,-1.0293071E0,-1.723562E-1,1.2939818E-1,1.4902544E-1,3.4996456E-1,5.820019E-1,2.1841739E-1,-7.001495E-3,1.0166281E0],"split_indices":[0,54,0,28,43,30,0,46,1,38,28,94,2,50,88,0,0,0,0,0,0,0,0,0,0,0,0,0,0,0,0],"split_type":[0,0,0,0,0,0,0,0,0,0,0,0,0,0,0,0,0,0,0,0,0,0,0,0,0,0,0,0,0,0,0],"sum_hessian":[2.042E3,1.204E3,8.38E2,9.1E2,2.94E2,6.69E2,1.69E2,3.82E2,5.28E2,2.86E2,8E0,1.86E2,4.83E2,1.44E2,2.5E1,8.7E1,2.95E2,4.43E2,8.5E1,1.33E2,1.53E2,5E0,3E0,9.1E1,9.5E1,2.51E2,2.32E2,9.6E1,4.8E1,3E0,2.2E1],"tree_param":{"num_deleted":"0","num_feature":"100","num_nodes":"31","size_leaf_vector":"1"}},{"base_weights":[2.396692E-2,-1.6899906E1,2.4330574E1,-2.2589657E1,7.280981E-1,1.7090967E1,5.272002E1,-3.0865675E1,-1.6555054E1,2.5235963E0,-5.6609245E1,-1.8185128E0,2.4361591E1,4.5857265E1,8.8965385E1,-8.3881825E-2,-3.7443897E-1,-2.057205E-1,4.3763597E-2,-7.627849E-2,1.1340285E-1,-1.6808043E-1,-1.0215874E0,-1.706513E-1,1.2811773E-1,1.0399142E-1,3.141916E-1,5.762416E-1,2.1627752E-1,-6.9488524E-3,1.0069042E0],"categories":[],"categories_nodes":[],"categories_segments":[],"categories_sizes":[],"default_left":[0,0,0,0,0,0,0,0,0,0,0,0,0,0,0,0,0,0,0,0,0,0,0,0,0,0,0,0,0,0,0],"id":39,"left_children":[1,3,5,7,9,11,13,15,17,19,21,23,25,27,29,-1,-1,-1,-1,-1,-1,-1,-1,-1,-1,-1,-1,-1,-1,-1,-1],"loss_changes":[8.408236E5,1.20876625E5,1.7153731E5,4.4986625E4,3.0512844E4,9.215841E4,3.8206594E4,5.6317E4,4.456911E4,2.5773617E4,1.459923E4,4.1931297E4,4.7367094E4,4.0094094E4,2.7402984E4,0E0,0E0,0E0,0E0,0E0,0E0,0E0,0E0,0E0,0E0,0E0,0E0,0E0,0E0,0E0,0E0],"parents":[2147483647,0,0,1,1,2,2,3,3,4,4,5,5,6,6,7,7,8,8,9,9,10,10,11,11,12,12,13,13,14,14],"right_children":[2,4,6,8,10,12,14,16,18,20,22,24,26,28,30,-1,-1,-1,-1,-1,-1,-1,-1,-1,-1,-1,-1,-1,-1,-1,-1],"split_conditions":[3.978E1,5.2666664E-1,7.399E1,2.22E0,3.38E2,3.92E0,9.923E1,4.9E1,5.3E-1,1.32E0,4.76E0,4.75E0,5.5E-1,1.928E1,4.1666666E-1,-8.3881825E-2,-3.7443897E-1,-2.057205E-1,4.3763597E-2,-7.627849E-2,1.1340285E-1,-1.6808043E-1,-1.0215874E0,-1.706513E-1,1.2811773E-1,1.0399142E-1,3.141916E-1,5.762416E-1,2.1627752E-1,-6.9488524E-3,1.0069042E0],"split_indices":[0,54,0,28,43,30,0,46,1,38,28,94,3,50,88,0,0,0,0,0,0,0,0,0,0,0,0,0,0,0,0],"split_type":[0,0,0,0,0,0,0,0,0,0,0,0,0,0,0,0,0,0,0,0,0,0,0,0,0,0,0,0,0,0,0],"sum_hessian":[2.042E3,1.204E3,8.38E2,9.1E2,2.94E2,6.69E2,1.69E2,3.82E2,5.28E2,2.86E2,8E0,1.86E2,4.83E2,1.44E2,2.5E1,8.7E1,2.95E2,4.43E2,8.5E1,1.33E2,1.53E2,5E0,3E0,9.1E1,9.5E1,1.63E2,3.2E2,9.6E1,4.8E1,3E0,2.2E1],"tree_param":{"num_deleted":"0","num_feature":"100","num_nodes":"31","size_leaf_vector":"1"}},{"base_weights":[2.3926826E-2,-1.4659698E1,2.749382E1,-2.1032084E1,3.0047798E0,1.3795886E1,4.1862553E1,-2.4884295E1,-6.7206593E0,-4.409555E1,5.9571815E0,-1.5665541E0,2.6414639E1,3.4894848E1,6.893625E1,-3.5524482E-1,-2.0153011E-1,-1.4209147E-1,8.679304E-2,-5.999219E-1,1.8772131E-1,5.025456E-1,3.4230802E-2,-6.415281E-1,1.5922928E-2,3.7794578E-1,1.07578024E-1,4.5489162E-1,2.1753377E-1,1.0763754E0,6.069207E-1],"categories":[],"categories_nodes":[],"categories_segments":[],"categories_sizes":[],"default_left":[0,0,0,0,0,0,0,0,0,0,0,0,0,0,0,0,0,0,0,0,0,0,0,0,0,0,0,0,0,0,0],"id":40,"left_children":[1,3,5,7,9,11,13,15,17,19,21,23,25,27,29,-1,-1,-1,-1,-1,-1,-1,-1,-1,-1,-1,-1,-1,-1,-1,-1],"loss_changes":[8.2446256E5,1.4999956E5,1.3955969E5,5.380572E4,4.9489605E4,7.0992234E4,6.3053062E4,3.809753E4,2.4225715E4,2.2113266E4,3.732083E4,3.292042E4,3.540636E4,3.771497E4,1.5801469E4,0E0,0E0,0E0,0E0,0E0,0E0,0E0,0E0,0E0,0E0,0E0,0E0,0E0,0E0,0E0,0E0],"parents":[2147483647,0,0,1,1,2,2,3,3,4,4,5,5,6,6,7,7,8,8,9,9,10,10,11,11,12,12,13,13,14,14],"right_children":[2,4,6,8,10,12,14,16,18,20,22,24,26,28,30,-1,-1,-1,-1,-1,-1,-1,-1,-1,-1,-1,-1,-1,-1,-1,-1],"split_conditions":[4.468E1,5.3E-1,1.893E1,1.061E1,4.9E-1,5.45E-1,8.67E1,4.575E-1,5.622E1,1.13514E2,4.95E-1,5.514E1,6.6E1,3.36E2,4.34E-1,-3.5524482E-1,-2.0153011E-1,-1.4209147E-1,8.679304E-2,-5.999219E-1,1.8772131E-1,5.025456E-1,3.4230802E-2,-6.415281E-1,1.5922928E-2,3.7794578E-1,1.07578024E-1,4.5489162E-1,2.1753377E-1,1.0763754E0,6.069207E-1],"split_indices":[0,3,42,42,54,54,0,55,10,56,52,44,16,43,53,0,0,0,0,0,0,0,0,0,0,0,0,0,0,0,0],"split_type":[0,0,0,0,0,0,0,0,0,0,0,0,0,0,0,0,0,0,0,0,0,0,0,0,0,0,0,0,0,0,0],"sum_hessian":[2.042E3,1.331E3,7.11E2,9.78E2,3.53E2,3.65E2,3.46E2,7.7E2,2.08E2,2E1,3.33E2,1.65E2,2E2,2.77E2,6.9E1,2.35E2,5.35E2,1.4E2,6.8E1,1.6E1,4E0,1.7E1,3.16E2,7E0,1.58E2,1.15E2,8.5E1,1.52E2,1.25E2,1E1,5.9E1],"tree_param":{"num_deleted":"0","num_feature":"100","num_nodes":"31","size_leaf_vector":"1"}},{"base_weights":[2.4530366E-2,-1.657066E1,2.385907E1,-2.5015963E1,-5.09095E0,1.6381105E1,5.057581E1,-3.303683E1,-1.6519072E1,-8.321243E0,2.0337914E1,4.695472E0,2.7000025E1,3.7958946E1,7.711286E1,7.5858035E-3,-3.6149165E-1,-7.792173E-2,-2.5783798E-1,-1.4558905E-1,2.0265322E-2,2.7744272E-1,-6.371834E-1,-8.687758E-3,2.9798636E-1,-2.3291345E-1,2.9524273E-1,4.6059737E-1,1.1648152E-1,8.903556E-1,1.8076265E-1],"categories":[],"categories_nodes":[],"categories_segments":[],"categories_sizes":[],"default_left":[0,0,0,0,0,0,0,0,0,0,0,0,0,0,0,0,0,0,0,0,0,0,0,0,0,0,0,0,0,0,0],"id":41,"left_children":[1,3,5,7,9,11,13,15,17,19,21,23,25,27,29,-1,-1,-1,-1,-1,-1,-1,-1,-1,-1,-1,-1,-1,-1,-1,-1],"loss_changes":[8.0848094E5,1.1669697E5,1.6679266E5,4.675203E4,4.222628E4,8.139958E4,5.8343875E4,3.747247E4,2.7208031E4,2.9397898E4,3.787577E4,4.388548E4,4.435772E4,2.6318906E4,3.9215375E4,0E0,0E0,0E0,0E0,0E0,0E0,0E0,0E0,0E0,0E0,0E0,0E0,0E0,0E0,0E0,0E0],"parents":[2147483647,0,0,1,1,2,2,3,3,4,4,5,5,6,6,7,7,8,8,9,9,10,10,11,11,12,12,13,13,14,14],"right_children":[2,4,6,8,10,12,14,16,18,20,22,24,26,28,30,-1,-1,-1,-1,-1,-1,-1,-1,-1,-1,-1,-1,-1,-1,-1,-1],"split_conditions":[3.978E1,5E-1,6.4176E1,1.6E0,5.8E-1,1.7E1,6.0333335E-1,1.94E0,5.16E-1,9E0,1.121E1,5.9E-1,1.25E2,1.992E1,6.333333E-1,7.5858035E-3,-3.6149165E-1,-7.792173E-2,-2.5783798E-1,-1.4558905E-1,2.0265322E-2,2.7744272E-1,-6.371834E-1,-8.687758E-3,2.9798636E-1,-2.3291345E-1,2.9524273E-1,4.6059737E-1,1.1648152E-1,8.903556E-1,1.8076265E-1],"split_indices":[0,1,51,78,2,27,86,50,53,20,50,2,15,50,87,0,0,0,0,0,0,0,0,0,0,0,0,0,0,0,0],"split_type":[0,0,0,0,0,0,0,0,0,0,0,0,0,0,0,0,0,0,0,0,0,0,0,0,0,0,0,0,0,0,0],"sum_hessian":[2.042E3,1.204E3,8.38E2,6.93E2,5.11E2,6.56E2,1.82E2,3.55E2,3.38E2,4.54E2,5.7E1,3.13E2,3.43E2,1.25E2,5.7E1,3E1,3.25E2,1.75E2,1.63E2,2.83E2,1.71E2,5.3E1,4E0,2.57E2,5.6E1,1.6E1,3.27E2,9.5E1,3E1,4.7E1,1E1],"tree_param":{"num_deleted":"0","num_feature":"100","num_nodes":"31","size_leaf_vector":"1"}},{"base_weights":[2.4689902E-2,-1.4373064E1,2.6959778E1,-2.076801E1,2.6903317E0,2.095389E1,5.894709E1,-2.224319E1,1.9233744E1,1.4799909E1,-3.400445E0,6.567987E0,3.1042095E1,2.9214298E1,7.3820496E1,-3.282577E-1,-1.7874658E-1,3.927483E-1,-1.7703077E-1,-5.2824326E-2,2.619613E-1,-7.0378885E-2,3.1698492E-1,-3.5728976E-2,2.0977132E-1,-3.5482574E-1,3.249052E-1,4.412102E-1,-2.5377116E-1,2.1043737E-1,8.080429E-1],"categories":[],"categories_nodes":[],"categories_segments":[],"categories_sizes":[],"default_left":[0,0,0,0,0,0,0,0,0,0,0,0,0,0,0,0,0,0,0,0,0,0,0,0,0,0,0,0,0,0,0],"id":42,"left_children":[1,3,5,7,9,11,13,15,17,19,21,23,25,27,29,-1,-1,-1,-1,-1,-1,-1,-1,-1,-1,-1,-1,-1,-1,-1,-1],"loss_changes":[7.926726E5,1.4540306E5,1.3554875E5,5.760828E4,2.6897775E4,8.7018E4,4.7372906E4,4.2638625E4,2.6604178E4,2.8059645E4,3.1247002E4,3.6459203E4,3.51665E4,3.2857055E4,2.5574656E4,0E0,0E0,0E0,0E0,0E0,0E0,0E0,0E0,0E0,0E0,0E0,0E0,0E0,0E0,0E0,0E0],"parents":[2147483647,0,0,1,1,2,2,3,3,4,4,5,5,6,6,7,7,8,8,9,9,10,10,11,11,12,12,13,13,14,14],"right_children":[2,4,6,8,10,12,14,16,18,20,22,24,26,28,30,-1,-1,-1,-1,-1,-1,-1,-1,-1,-1,-1,-1,-1,-1,-1,-1],"split_conditions":[4.468E1,5.2666664E-1,7.0216E1,1.718E1,5.16E-1,1.7E1,2.97E0,4.58E-1,6.422E1,1E0,4.2E1,5.7E-1,1.78E2,1.1225E0,5.6E-1,-3.282577E-1,-1.7874658E-1,3.927483E-1,-1.7703077E-1,-5.2824326E-2,2.619613E-1,-7.0378885E-2,3.1698492E-1,-3.5728976E-2,2.0977132E-1,-3.5482574E-1,3.249052E-1,4.412102E-1,-2.5377116E-1,2.1043737E-1,8.080429E-1],"split_indices":[0,54,51,13,87,27,89,55,44,21,18,2,43,97,3,0,0,0,0,0,0,0,0,0,0,0,0,0,0,0,0],"split_type":[0,0,0,0,0,0,0,0,0,0,0,0,0,0,0,0,0,0,0,0,0,0,0,0,0,0,0,0,0,0,0],"sum_hessian":[2.042E3,1.331E3,7.11E2,9.68E2,3.63E2,6E2,1.11E2,9.34E2,3.4E1,1.21E2,2.42E2,2.48E2,3.52E2,3.8E1,7.3E1,2.71E2,6.63E2,2.2E1,1.2E1,4.4E1,7.7E1,2.2E2,2.2E1,1.46E2,1.02E2,7E0,3.45E2,3E1,8E0,9E0,6.4E1],"tree_param":{"num_deleted":"0","num_feature":"100","num_nodes":"31","size_leaf_vector":"1"}},{"base_weights":[2.5190102E-2,-1.6246891E1,2.339567E1,-2.4558802E1,-4.9486237E0,1.7071611E1,5.4056328E1,-3.247633E1,-1.6171785E1,-8.1385355E0,2.0161007E1,-2.0736697E0,2.3396433E1,3.2008045E1,6.7074295E1,9.834477E-3,-3.5558468E-1,-1.7820641E-1,3.0244657E-1,-1.4294395E-1,2.073107E-2,2.749984E-1,-6.3130605E-1,-1.0291399E-1,2.2439879E-1,7.223873E-2,2.9389313E-1,5.8863705E-1,9.317737E-2,8.581931E-1,5.27226E-1],"categories":[],"categories_nodes":[],"categories_segments":[],"categories_sizes":[],"default_left":[0,0,0,0,0,0,0,0,0,0,0,0,0,0,0,0,0,0,0,0,0,0,0,0,0,0,0,0,0,0,0],"id":43,"left_children":[1,3,5,7,9,11,13,15,17,19,21,23,25,27,29,-1,-1,-1,-1,-1,-1,-1,-1,-1,-1,-1,-1,-1,-1,-1,-1],"loss_changes":[7.7730506E5,1.1304028E5,1.6175916E5,4.55595E4,4.1174008E4,8.444861E4,3.88975E4,3.6748406E4,2.6484055E4,2.8631586E4,3.718935E4,3.5282492E4,5.0573875E4,3.29665E4,1.9418375E4,0E0,0E0,0E0,0E0,0E0,0E0,0E0,0E0,0E0,0E0,0E0,0E0,0E0,0E0,0E0,0E0],"parents":[2147483647,0,0,1,1,2,2,3,3,4,4,5,5,6,6,7,7,8,8,9,9,10,10,11,11,12,12,13,13,14,14],"right_children":[2,4,6,8,10,12,14,16,18,20,22,24,26,28,30,-1,-1,-1,-1,-1,-1,-1,-1,-1,-1,-1,-1,-1,-1,-1,-1],"split_conditions":[3.978E1,5E-1,3E1,1.6E0,5.8E-1,1.24E0,7.881E1,1.94E0,2.37E0,9E0,1.121E1,5.7E1,5.3333336E-1,8.519E1,4.5666668E-1,9.834477E-3,-3.5558468E-1,-1.7820641E-1,3.0244657E-1,-1.4294395E-1,2.073107E-2,2.749984E-1,-6.3130605E-1,-1.0291399E-1,2.2439879E-1,7.223873E-2,2.9389313E-1,5.8863705E-1,9.317737E-2,8.581931E-1,5.27226E-1],"split_indices":[0,1,19,78,2,99,0,50,37,20,50,26,54,44,88,0,0,0,0,0,0,0,0,0,0,0,0,0,0,0,0],"split_type":[0,0,0,0,0,0,0,0,0,0,0,0,0,0,0,0,0,0,0,0,0,0,0,0,0,0,0,0,0,0,0],"sum_hessian":[2.042E3,1.204E3,8.38E2,6.93E2,5.11E2,6.96E2,1.42E2,3.55E2,3.38E2,4.54E2,5.7E1,1.73E2,5.23E2,5.4E1,8.8E1,3E1,3.25E2,3.27E2,1.1E1,2.83E2,1.71E2,5.3E1,4E0,1.3E2,4.3E1,1.42E2,3.81E2,2.4E1,3E1,3.6E1,5.2E1],"tree_param":{"num_deleted":"0","num_feature":"100","num_nodes":"31","size_leaf_vector":"1"}},{"base_weights":[2.5845654E-2,-1.4092189E1,2.6437637E1,-2.442866E1,-3.8733568E0,1.2893181E1,4.0175785E1,-3.483686E1,-1.891717E1,-1.725306E1,2.2167103E0,-2.3226452E0,2.5494717E1,3.0791428E1,6.7666565E1,-4.3124035E-1,-2.436093E-1,-2.4769744E-1,-5.5858646E-2,1.2776787E-2,-2.1893351E-1,-4.3000862E-1,3.621675E-2,-1.430731E-1,1.6626945E-1,-4.82041E-1,2.806224E-1,6.0824287E-1,2.6405695E-1,5.6797606E-1,9.638627E-1],"categories":[],"categories_nodes":[],"categories_segments":[],"categories_sizes":[],"default_left":[0,0,0,0,0,0,0,0,0,0,0,0,0,0,0,0,0,0,0,0,0,0,0,0,0,0,0,0,0,0,0],"id":44,"left_children":[1,3,5,7,9,11,13,15,17,19,21,23,25,27,29,-1,-1,-1,-1,-1,-1,-1,-1,-1,-1,-1,-1,-1,-1,-1,-1],"loss_changes":[7.621717E5,1.4060006E5,1.319679E5,3.7316406E4,5.471353E4,6.908661E4,8.898456E4,1.8743469E4,3.3801406E4,1.8085453E4,2.9506186E4,3.7483023E4,3.8629742E4,3.3298656E4,2.2307156E4,0E0,0E0,0E0,0E0,0E0,0E0,0E0,0E0,0E0,0E0,0E0,0E0,0E0,0E0,0E0,0E0],"parents":[2147483647,0,0,1,1,2,2,3,3,4,4,5,5,6,6,7,7,8,8,9,9,10,10,11,11,12,12,13,13,14,14],"right_children":[2,4,6,8,10,12,14,16,18,20,22,24,26,28,30,-1,-1,-1,-1,-1,-1,-1,-1,-1,-1,-1,-1,-1,-1,-1,-1],"split_conditions":[4.468E1,4.9E-1,5.8E-1,4.38E-1,1.3E1,1.6E1,7.0216E1,4.55E-1,9E0,9.662E0,4.6E-1,5.1E1,2.747E1,6.6E1,9.923E1,-4.3124035E-1,-2.436093E-1,-2.4769744E-1,-5.5858646E-2,1.2776787E-2,-2.1893351E-1,-4.3000862E-1,3.621675E-2,-1.430731E-1,1.6626945E-1,-4.82041E-1,2.806224E-1,6.0824287E-1,2.6405695E-1,5.6797606E-1,9.638627E-1],"split_indices":[0,2,1,87,26,27,51,55,27,51,55,18,51,45,0,0,0,0,0,0,0,0,0,0,0,0,0,0,0,0,0],"split_type":[0,0,0,0,0,0,0,0,0,0,0,0,0,0,0,0,0,0,0,0,0,0,0,0,0,0,0,0,0,0,0],"sum_hessian":[2.042E3,1.331E3,7.11E2,6.61E2,6.7E2,3.59E2,3.52E2,2.27E2,4.34E2,2.09E2,4.61E2,1.63E2,1.96E2,2.64E2,8.8E1,1.25E2,1.02E2,3.01E2,1.33E2,4.2E1,1.67E2,1.3E1,4.48E2,1E2,6.3E1,6E0,1.9E2,3.2E1,2.32E2,6.6E1,2.2E1],"tree_param":{"num_deleted":"0","num_feature":"100","num_nodes":"31","size_leaf_vector":"1"}},{"base_weights":[2.5904091E-2,-1.5932753E1,2.2946232E1,-2.1346432E1,8.394343E-1,9.56971E0,3.698617E1,-2.9373344E1,-1.54945345E1,2.6197476E0,-5.6026047E1,-4.960387E0,1.7830276E1,3.3488052E1,8.722812E1,-6.558262E-2,-3.556696E-1,-1.9374752E-1,4.7183808E-2,-7.321627E-2,1.1253023E-1,-1.6633005E-1,-1.011091E0,-4.1336745E-1,4.760698E-4,2.635679E-1,2.1613982E-2,2.860155E-1,5.4998904E-1,1.1010641E0,3.1779528E-1],"categories":[],"categories_nodes":[],"categories_segments":[],"categories_sizes":[],"default_left":[0,0,0,0,0,0,0,0,0,0,0,0,0,0,0,0,0,0,0,0,0,0,0,0,0,0,0,0,0,0,0],"id":45,"left_children":[1,3,5,7,9,11,13,15,17,19,21,23,25,27,29,-1,-1,-1,-1,-1,-1,-1,-1,-1,-1,-1,-1,-1,-1,-1,-1],"loss_changes":[7.476493E5,1.0943103E5,1.5721488E5,4.233697E4,3.0012094E4,5.1820004E4,6.896156E4,5.3887688E4,4.1581133E4,2.471463E4,1.4301879E4,2.8603066E4,3.6683297E4,3.879025E4,2.9483672E4,0E0,0E0,0E0,0E0,0E0,0E0,0E0,0E0,0E0,0E0,0E0,0E0,0E0,0E0,0E0,0E0],"parents":[2147483647,0,0,1,1,2,2,3,3,4,4,5,5,6,6,7,7,8,8,9,9,10,10,11,11,12,12,13,13,14,14],"right_children":[2,4,6,8,10,12,14,16,18,20,22,24,26,28,30,-1,-1,-1,-1,-1,-1,-1,-1,-1,-1,-1,-1,-1,-1,-1,-1],"split_conditions":[3.978E1,5.2666664E-1,5.753E1,2.22E0,3.38E2,1.42E0,1.3333333E1,4.02E0,5.3E-1,1.32E0,4.76E0,4.8666668E-1,2.5E1,6.0333335E-1,8.332E0,-6.558262E-2,-3.556696E-1,-1.9374752E-1,4.7183808E-2,-7.321627E-2,1.1253023E-1,-1.6633005E-1,-1.011091E0,-4.1336745E-1,4.760698E-4,2.635679E-1,2.1613982E-2,2.860155E-1,5.4998904E-1,1.1010641E0,3.1779528E-1],"split_indices":[0,54,0,28,43,99,78,47,1,38,28,54,48,86,59,0,0,0,0,0,0,0,0,0,0,0,0,0,0,0,0],"split_type":[0,0,0,0,0,0,0,0,0,0,0,0,0,0,0,0,0,0,0,0,0,0,0,0,0,0,0,0,0,0,0],"sum_hessian":[2.042E3,1.204E3,8.38E2,9.1E2,2.94E2,4.3E2,4.08E2,3.82E2,5.28E2,2.86E2,8E0,1.56E2,2.74E2,3.83E2,2.5E1,8.2E1,3E2,4.43E2,8.5E1,1.33E2,1.53E2,5E0,3E0,1.8E1,1.38E2,1.77E2,9.7E1,3.14E2,6.9E1,1.7E1,8E0],"tree_param":{"num_deleted":"0","num_feature":"100","num_nodes":"31","size_leaf_vector":"1"}},{"base_weights":[2.5847478E-2,-1.5897966E1,2.2575142E1,-1.9685379E1,1.5640244E1,4.6713233E0,3.501593E1,-2.509405E1,-1.1188853E1,6.42866E1,1.1892661E1,-4.7029617E1,6.9792356E0,2.8585463E1,6.038764E1,-3.472224E-1,-1.991678E-1,8.800718E-2,-1.4052948E-1,7.710417E-1,1.2950073E-1,-4.388431E-2,2.5080234E-1,-2.1272865E-1,-6.690767E-1,-3.079966E-3,1.8859275E-1,3.6056018E-1,1.3653955E-1,-2.2194347E-1,6.4059746E-1],"categories":[],"categories_nodes":[],"categories_segments":[],"categories_sizes":[],"default_left":[0,0,0,0,0,0,0,0,0,0,0,0,0,0,0,0,0,0,0,0,0,0,0,0,0,0,0,0,0,0,0],"id":46,"left_children":[1,3,5,7,9,11,13,15,17,19,21,23,25,27,29,-1,-1,-1,-1,-1,-1,-1,-1,-1,-1,-1,-1,-1,-1,-1,-1],"loss_changes":[7.3394044E5,1.4340684E5,1.8827253E5,4.8890938E4,2.2752965E4,4.1852023E4,7.968656E4,3.1859031E4,2.4055016E4,4.923582E3,2.608974E4,6.2565938E3,2.8921062E4,4.4126375E4,3.174675E4,0E0,0E0,0E0,0E0,0E0,0E0,0E0,0E0,0E0,0E0,0E0,0E0,0E0,0E0,0E0,0E0],"parents":[2147483647,0,0,1,1,2,2,3,3,4,4,5,5,6,6,7,7,8,8,9,9,10,10,11,11,12,12,13,13,14,14],"right_children":[2,4,6,8,10,12,14,16,18,20,22,24,26,28,30,-1,-1,-1,-1,-1,-1,-1,-1,-1,-1,-1,-1,-1,-1,-1,-1],"split_conditions":[5.4E-1,2.42E0,4.93E0,4.9E-1,5.365E1,4.8666668E-1,7.958E1,4.38E-1,4.625E-1,1.952E1,3.16E2,7.5E-1,6E0,3.36E2,3.03E0,-3.472224E-1,-1.991678E-1,8.800718E-2,-1.4052948E-1,7.710417E-1,1.2950073E-1,-4.388431E-2,2.5080234E-1,-2.1272865E-1,-6.690767E-1,-3.079966E-3,1.8859275E-1,3.6056018E-1,1.3653955E-1,-2.2194347E-1,6.4059746E-1],"split_indices":[2,37,30,2,44,54,0,87,88,5,17,68,94,43,37,0,0,0,0,0,0,0,0,0,0,0,0,0,0,0,0],"split_type":[0,0,0,0,0,0,0,0,0,0,0,0,0,0,0,0,0,0,0,0,0,0,0,0,0,0,0,0,0,0,0],"sum_hessian":[2.042E3,1.197E3,8.45E2,1.069E3,1.28E2,3.47E2,4.98E2,6.52E2,4.17E2,8E0,1.2E2,1.4E1,3.33E2,3.99E2,9.9E1,2.26E2,4.26E2,5.2E1,3.65E2,6E0,2E0,5.4E1,6.6E1,7E0,7E0,2.07E2,1.26E2,2.65E2,1.34E2,4E0,9.5E1],"tree_param":{"num_deleted":"0","num_feature":"100","num_nodes":"31","size_leaf_vector":"1"}},{"base_weights":[2.5938239E-2,-1.5629212E1,2.251036E1,-2.3645279E1,-4.7331595E0,9.356258E0,3.631698E1,-3.1416357E1,-1.5414749E1,-7.8593726E0,1.9873053E1,-4.949714E0,1.7489647E1,3.286508E1,8.590205E1,1.5050698E-2,-3.4450552E-1,-6.92401E-2,-2.443277E-1,-1.385863E-1,2.0920718E-2,2.7137524E-1,-6.255787E-1,-4.0816286E-1,-1.14798786E-4,2.5920448E-1,1.9980911E-2,1.19530134E-1,3.7652633E-1,1.0856093E0,3.1039605E-1],"categories":[],"categories_nodes":[],"categories_segments":[],"categories_sizes":[],"default_left":[0,0,0,0,0,0,0,0,0,0,0,0,0,0,0,0,0,0,0,0,0,0,0,0,0,0,0,0,0,0,0],"id":47,"left_children":[1,3,5,7,9,11,13,15,17,19,21,23,25,27,29,-1,-1,-1,-1,-1,-1,-1,-1,-1,-1,-1,-1,-1,-1,-1,-1],